//        _             
//    ___(_)_ __   __ _ 
//   / __| | '_ \ / _` |    simple and intuitive numerical analysis
//   \__ \ | | | | (_| |    Farshid Mossaiby, University of Isfahan
//   |___/_|_| |_|\__,_|    (c) copyright 2019, all rights reserved
//                      
//
// quadrature.h
//
// quadrature data
//

#pragma once

// includes, project

#include "sina.h"


namespace sina
{
  namespace kernel
  {
    namespace detail
    {
      // Gauss-Legendre points

      sina::kernel::scalar_t gauss_legendre_points_1[] = { 0. };
      sina::kernel::scalar_t gauss_legendre_weights_1[] = { 2. };

      sina::kernel::scalar_t gauss_legendre_points_2[] = { -0.57735026918962576451, 0.57735026918962576451 };
      sina::kernel::scalar_t gauss_legendre_weights_2[] = { 1., 1. };

      sina::kernel::scalar_t gauss_legendre_points_3[] = { -0.77459666924148337704, 0., 0.77459666924148337704 };
      sina::kernel::scalar_t gauss_legendre_weights_3[] = { 0.55555555555555555556, 0.88888888888888888889, 0.55555555555555555556 };

      sina::kernel::scalar_t gauss_legendre_points_4[] = { -0.86113631159405257522, -0.3399810435848562648, 0.3399810435848562648, 0.86113631159405257522 };
      sina::kernel::scalar_t gauss_legendre_weights_4[] = { 0.34785484513745385737, 0.65214515486254614263, 0.65214515486254614263, 0.34785484513745385737 };

      sina::kernel::scalar_t gauss_legendre_points_5[] = { -0.9061798459386639928, -0.53846931010568309104, 0., 0.53846931010568309104, 0.9061798459386639928 };
      sina::kernel::scalar_t gauss_legendre_weights_5[] = { 0.23692688505618908751, 0.47862867049936646804, 0.56888888888888888889, 0.47862867049936646804, 0.23692688505618908751 };

      sina::kernel::scalar_t gauss_legendre_points_6[] = { -0.93246951420315202781, -0.66120938646626451366, -0.23861918608319690863, 0.23861918608319690863, 0.66120938646626451366, 0.93246951420315202781 };
      sina::kernel::scalar_t gauss_legendre_weights_6[] = { 0.17132449237917034504, 0.36076157304813860757, 0.46791393457269104739, 0.46791393457269104739, 0.36076157304813860757, 0.17132449237917034504 };

      sina::kernel::scalar_t gauss_legendre_points_7[] = { -0.94910791234275852453, -0.74153118559939443986, -0.40584515137739716691, 0., 0.40584515137739716691, 0.74153118559939443986, 0.94910791234275852453 };
      sina::kernel::scalar_t gauss_legendre_weights_7[] = { 0.12948496616886969327, 0.2797053914892766679, 0.38183005050511894495, 0.41795918367346938776, 0.38183005050511894495, 0.2797053914892766679, 0.12948496616886969327 };

      sina::kernel::scalar_t gauss_legendre_points_8[] = { -0.96028985649753623168, -0.79666647741362673959, -0.52553240991632898582, -0.18343464249564980494, 0.18343464249564980494, 0.52553240991632898582, 0.79666647741362673959, 0.96028985649753623168 };
      sina::kernel::scalar_t gauss_legendre_weights_8[] = { 0.10122853629037625915, 0.22238103445337447054, 0.31370664587788728734, 0.36268378337836198297, 0.36268378337836198297, 0.31370664587788728734, 0.22238103445337447054, 0.10122853629037625915 };

      sina::kernel::scalar_t gauss_legendre_points_9[] = { -0.96816023950762608984, -0.8360311073266357943, -0.61337143270059039731, -0.32425342340380892904, 0., 0.32425342340380892904, 0.61337143270059039731, 0.8360311073266357943, 0.96816023950762608984 };
      sina::kernel::scalar_t gauss_legendre_weights_9[] = { 0.081274388361574411972, 0.18064816069485740406, 0.26061069640293546232, 0.31234707704000284007, 0.33023935500125976316, 0.31234707704000284007, 0.26061069640293546232, 0.18064816069485740406, 0.081274388361574411972 };

      sina::kernel::scalar_t gauss_legendre_points_10[] = { -0.97390652851717172008, -0.86506336668898451073, -0.67940956829902440623, -0.4333953941292471908, -0.14887433898163121088, 0.14887433898163121088, 0.4333953941292471908, 0.67940956829902440623, 0.86506336668898451073, 0.97390652851717172008 };
      sina::kernel::scalar_t gauss_legendre_weights_10[] = { 0.066671344308688137594, 0.14945134915058059315, 0.219086362515982044, 0.26926671930999635509, 0.29552422471475287017, 0.29552422471475287017, 0.26926671930999635509, 0.219086362515982044, 0.14945134915058059315, 0.066671344308688137594 };

      sina::kernel::scalar_t gauss_legendre_points_11[] = { -0.9782286581460569928, -0.88706259976809529908, -0.73015200557404932409, -0.51909612920681181593, -0.26954315595234497233, 0., 0.26954315595234497233, 0.51909612920681181593, 0.73015200557404932409, 0.88706259976809529908, 0.9782286581460569928 };
      sina::kernel::scalar_t gauss_legendre_weights_11[] = { 0.055668567116173666483, 0.12558036946490462463, 0.18629021092773425143, 0.23319376459199047992, 0.26280454451024666218, 0.27292508677790063071, 0.26280454451024666218, 0.23319376459199047992, 0.18629021092773425143, 0.12558036946490462463, 0.055668567116173666483 };

      sina::kernel::scalar_t gauss_legendre_points_12[] = { -0.98156063424671925069, -0.90411725637047485668, -0.76990267419430468704, -0.5873179542866174473, -0.36783149899818019375, -0.12523340851146891547, 0.12523340851146891547, 0.36783149899818019375, 0.5873179542866174473, 0.76990267419430468704, 0.90411725637047485668, 0.98156063424671925069 };
      sina::kernel::scalar_t gauss_legendre_weights_12[] = { 0.047175336386511827195, 0.10693932599531843096, 0.16007832854334622633, 0.20316742672306592175, 0.23349253653835480876, 0.249147045813402785, 0.249147045813402785, 0.23349253653835480876, 0.20316742672306592175, 0.16007832854334622633, 0.10693932599531843096, 0.047175336386511827195 };

      sina::kernel::scalar_t gauss_legendre_points_13[] = { -0.98418305471858814947, -0.91759839922297796521, -0.80157809073330991279, -0.64234933944034022064, -0.44849275103644685288, -0.23045831595513479407, 0., 0.23045831595513479407, 0.44849275103644685288, 0.64234933944034022064, 0.80157809073330991279, 0.91759839922297796521, 0.98418305471858814947 };
      sina::kernel::scalar_t gauss_legendre_weights_13[] = { 0.04048400476531587952, 0.092121499837728447914, 0.13887351021978723846, 0.17814598076194573828, 0.20781604753688850231, 0.22628318026289723841, 0.23255155323087391019, 0.22628318026289723841, 0.20781604753688850231, 0.17814598076194573828, 0.13887351021978723846, 0.092121499837728447914, 0.04048400476531587952 };

      sina::kernel::scalar_t gauss_legendre_points_14[] = { -0.98628380869681233884, -0.92843488366357351734, -0.82720131506976499319, -0.68729290481168547015, -0.51524863635815409197, -0.31911236892788976044, -0.10805494870734366207, 0.10805494870734366207, 0.31911236892788976044, 0.51524863635815409197, 0.68729290481168547015, 0.82720131506976499319, 0.92843488366357351734, 0.98628380869681233884 };
      sina::kernel::scalar_t gauss_legendre_weights_14[] = { 0.035119460331751863032, 0.080158087159760209806, 0.12151857068790318469, 0.15720316715819353457, 0.18553839747793781374, 0.20519846372129560397, 0.2152638534631577902, 0.2152638534631577902, 0.20519846372129560397, 0.18553839747793781374, 0.15720316715819353457, 0.12151857068790318469, 0.080158087159760209806, 0.035119460331751863032 };

      sina::kernel::scalar_t gauss_legendre_points_15[] = { -0.98799251802048542849, -0.93727339240070590431, -0.8482065834104272162, -0.72441773136017004742, -0.57097217260853884754, -0.3941513470775633699, -0.2011940939974345223, 0., 0.2011940939974345223, 0.3941513470775633699, 0.57097217260853884754, 0.72441773136017004742, 0.8482065834104272162, 0.93727339240070590431, 0.98799251802048542849 };
      sina::kernel::scalar_t gauss_legendre_weights_15[] = { 0.030753241996117268355, 0.070366047488108124709, 0.10715922046717193501, 0.13957067792615431445, 0.16626920581699393355, 0.18616100001556221103, 0.19843148532711157646, 0.20257824192556127288, 0.19843148532711157646, 0.18616100001556221103, 0.16626920581699393355, 0.13957067792615431445, 0.10715922046717193501, 0.070366047488108124709, 0.030753241996117268355 };

      sina::kernel::scalar_t gauss_legendre_points_16[] = { -0.9894009349916499326, -0.94457502307323257608, -0.86563120238783174388, -0.7554044083550030339, -0.61787624440264374845, -0.45801677765722738634, -0.28160355077925891323, -0.095012509837637440185, 0.095012509837637440185, 0.28160355077925891323, 0.45801677765722738634, 0.61787624440264374845, 0.7554044083550030339, 0.86563120238783174388, 0.94457502307323257608, 0.9894009349916499326 };
      sina::kernel::scalar_t gauss_legendre_weights_16[] = { 0.027152459411754094852, 0.062253523938647892863, 0.09515851168249278481, 0.12462897125553387205, 0.14959598881657673208, 0.16915651939500253819, 0.18260341504492358887, 0.18945061045506849629, 0.18945061045506849629, 0.18260341504492358887, 0.16915651939500253819, 0.14959598881657673208, 0.12462897125553387205, 0.09515851168249278481, 0.062253523938647892863, 0.027152459411754094852 };

      sina::kernel::scalar_t gauss_legendre_points_17[] = { -0.99057547531441733568, -0.95067552176876776122, -0.88023915372698590212, -0.78151400389680140693, -0.65767115921669076585, -0.51269053708647696789, -0.3512317634538763153, -0.17848418149584785585, 0., 0.17848418149584785585, 0.3512317634538763153, 0.51269053708647696789, 0.65767115921669076585, 0.78151400389680140693, 0.88023915372698590212, 0.95067552176876776122, 0.99057547531441733568 };
      sina::kernel::scalar_t gauss_legendre_weights_17[] = { 0.02414830286854793196, 0.055459529373987201129, 0.085036148317179180884, 0.11188384719340397109, 0.13513636846852547329, 0.15404576107681028808, 0.16800410215645004451, 0.17656270536699264633, 0.17944647035620652546, 0.17656270536699264633, 0.16800410215645004451, 0.15404576107681028808, 0.13513636846852547329, 0.11188384719340397109, 0.085036148317179180884, 0.055459529373987201129, 0.02414830286854793196 };

      sina::kernel::scalar_t gauss_legendre_points_18[] = { -0.99156516842093094673, -0.95582394957139775518, -0.89260246649755573921, -0.80370495897252311568, -0.69168704306035320787, -0.55977083107394753461, -0.41175116146284264604, -0.25188622569150550959, -0.084775013041735301242, 0.084775013041735301242, 0.25188622569150550959, 0.41175116146284264604, 0.55977083107394753461, 0.69168704306035320787, 0.80370495897252311568, 0.89260246649755573921, 0.95582394957139775518, 0.99156516842093094673 };
      sina::kernel::scalar_t gauss_legendre_weights_18[] = { 0.021616013526483310313, 0.049714548894969796453, 0.076425730254889056529, 0.10094204410628716556, 0.12255520671147846018, 0.1406429146706506512, 0.15468467512626524493, 0.16427648374583272299, 0.16914238296314359184, 0.16914238296314359184, 0.16427648374583272299, 0.15468467512626524493, 0.1406429146706506512, 0.12255520671147846018, 0.10094204410628716556, 0.076425730254889056529, 0.049714548894969796453, 0.021616013526483310313 };

      sina::kernel::scalar_t gauss_legendre_points_19[] = { -0.99240684384358440319, -0.96020815213483003085, -0.90315590361481790164, -0.82271465653714282498, -0.72096617733522937862, -0.60054530466168102347, -0.46457074137596094572, -0.31656409996362983199, -0.16035864564022537587, 0., 0.16035864564022537587, 0.31656409996362983199, 0.46457074137596094572, 0.60054530466168102347, 0.72096617733522937862, 0.82271465653714282498, 0.90315590361481790164, 0.96020815213483003085, 0.99240684384358440319 };
      sina::kernel::scalar_t gauss_legendre_weights_19[] = { 0.019461788229726477036, 0.044814226765699600333, 0.069044542737641226581, 0.091490021622449999464, 0.11156664554733399472, 0.12875396253933622768, 0.14260670217360661178, 0.15276604206585966678, 0.15896884339395434765, 0.16105444984878369598, 0.15896884339395434765, 0.15276604206585966678, 0.14260670217360661178, 0.12875396253933622768, 0.11156664554733399472, 0.091490021622449999464, 0.069044542737641226581, 0.044814226765699600333, 0.019461788229726477036 };

      sina::kernel::scalar_t gauss_legendre_points_20[] = { -0.99312859918509492479, -0.96397192727791379127, -0.91223442825132590587, -0.83911697182221882339, -0.74633190646015079261, -0.63605368072651502545, -0.510867001950827098, -0.37370608871541956067, -0.22778585114164507808, -0.076526521133497333755, 0.076526521133497333755, 0.22778585114164507808, 0.37370608871541956067, 0.510867001950827098, 0.63605368072651502545, 0.74633190646015079261, 0.83911697182221882339, 0.91223442825132590587, 0.96397192727791379127, 0.99312859918509492479 };
      sina::kernel::scalar_t gauss_legendre_weights_20[] = { 0.017614007139152118312, 0.040601429800386941331, 0.06267204833410906357, 0.083276741576704748725, 0.10193011981724043504, 0.11819453196151841731, 0.1316886384491766269, 0.14209610931838205133, 0.14917298647260374679, 0.1527533871307258507, 0.1527533871307258507, 0.14917298647260374679, 0.14209610931838205133, 0.1316886384491766269, 0.11819453196151841731, 0.10193011981724043504, 0.083276741576704748725, 0.06267204833410906357, 0.040601429800386941331, 0.017614007139152118312 };

      sina::kernel::scalar_t gauss_legendre_points_21[] = { -0.99375217062038950026, -0.96722683856630629432, -0.92009933415040082879, -0.85336336458331728365, -0.76843996347567790862, -0.66713880419741231931, -0.55161883588721980706, -0.42434212020743878357, -0.2880213168024010966, -0.14556185416089509094, 0., 0.14556185416089509094, 0.2880213168024010966, 0.42434212020743878357, 0.55161883588721980706, 0.66713880419741231931, 0.76843996347567790862, 0.85336336458331728365, 0.92009933415040082879, 0.96722683856630629432, 0.99375217062038950026 };
      sina::kernel::scalar_t gauss_legendre_weights_21[] = { 0.016017228257774333324, 0.0369537897708524938, 0.057134425426857208284, 0.076100113628379302017, 0.093444423456033861553, 0.10879729916714837766, 0.1218314160537285342, 0.13226893863333746178, 0.13988739479107315472, 0.14452440398997005906, 0.14608113364969042719, 0.14452440398997005906, 0.13988739479107315472, 0.13226893863333746178, 0.1218314160537285342, 0.10879729916714837766, 0.093444423456033861553, 0.076100113628379302017, 0.057134425426857208284, 0.0369537897708524938, 0.016017228257774333324 };

      sina::kernel::scalar_t gauss_legendre_points_22[] = { -0.99429458548239929207, -0.97006049783542872712, -0.92695677218717400052, -0.86581257772030013654, -0.787816805979208162, -0.69448726318668278005, -0.58764040350691159296, -0.46935583798675702641, -0.34193582089208422516, -0.20786042668822128548, -0.069739273319722221214, 0.069739273319722221214, 0.20786042668822128548, 0.34193582089208422516, 0.46935583798675702641, 0.58764040350691159296, 0.69448726318668278005, 0.787816805979208162, 0.86581257772030013654, 0.92695677218717400052, 0.97006049783542872712, 0.99429458548239929207 };
      sina::kernel::scalar_t gauss_legendre_weights_22[] = { 0.014627995298272200685, 0.033774901584814154793, 0.05229333515268328594, 0.069796468424520488095, 0.085941606217067727414, 0.10041414444288096493, 0.11293229608053921839, 0.12325237681051242429, 0.13117350478706237073, 0.13654149834601517135, 0.13925187285563199338, 0.13925187285563199338, 0.13654149834601517135, 0.13117350478706237073, 0.12325237681051242429, 0.11293229608053921839, 0.10041414444288096493, 0.085941606217067727414, 0.069796468424520488095, 0.05229333515268328594, 0.033774901584814154793, 0.014627995298272200685 };

      sina::kernel::scalar_t gauss_legendre_points_23[] = { -0.99476933499755212352, -0.97254247121811523196, -0.93297108682601610235, -0.87675235827044166738, -0.80488840161883989215, -0.71866136313195019446, -0.61960987576364615639, -0.50950147784600754969, -0.39030103803029083142, -0.26413568097034493053, -0.13325682429846611093, 0., 0.13325682429846611093, 0.26413568097034493053, 0.39030103803029083142, 0.50950147784600754969, 0.61960987576364615639, 0.71866136313195019446, 0.80488840161883989215, 0.87675235827044166738, 0.93297108682601610235, 0.97254247121811523196, 0.99476933499755212352 };
      sina::kernel::scalar_t gauss_legendre_weights_23[] = { 0.013411859487141772081, 0.030988005856979444311, 0.048037671731084668572, 0.064232421408525852127, 0.079281411776718954923, 0.092915766060035147477, 0.10489209146454141007, 0.11499664022241136494, 0.12304908430672953047, 0.12890572218808214998, 0.13246203940469661737, 0.13365457218610617535, 0.13246203940469661737, 0.12890572218808214998, 0.12304908430672953047, 0.11499664022241136494, 0.10489209146454141007, 0.092915766060035147477, 0.079281411776718954923, 0.064232421408525852127, 0.048037671731084668572, 0.030988005856979444311, 0.013411859487141772081 };

      sina::kernel::scalar_t gauss_legendre_points_24[] = { -0.99518721999702136018, -0.9747285559713094982, -0.93827455200273275852, -0.88641552700440103421, -0.82000198597390292195, -0.74012419157855436424, -0.64809365193697556925, -0.54542147138883953566, -0.43379350762604513849, -0.31504267969616337439, -0.19111886747361630916, -0.064056892862605626085, 0.064056892862605626085, 0.19111886747361630916, 0.31504267969616337439, 0.43379350762604513849, 0.54542147138883953566, 0.64809365193697556925, 0.74012419157855436424, 0.82000198597390292195, 0.88641552700440103421, 0.93827455200273275852, 0.9747285559713094982, 0.99518721999702136018 };
      sina::kernel::scalar_t gauss_legendre_weights_24[] = { 0.012341229799987199547, 0.028531388628933663181, 0.044277438817419806169, 0.059298584915436780746, 0.073346481411080305734, 0.086190161531953275917, 0.09761865210411388827, 0.10744427011596563478, 0.11550566805372560135, 0.1216704729278033912, 0.12583745634682829612, 0.12793819534675215697, 0.12793819534675215697, 0.12583745634682829612, 0.1216704729278033912, 0.11550566805372560135, 0.10744427011596563478, 0.09761865210411388827, 0.086190161531953275917, 0.073346481411080305734, 0.059298584915436780746, 0.044277438817419806169, 0.028531388628933663181, 0.012341229799987199547 };

      sina::kernel::scalar_t gauss_legendre_points_25[] = { -0.99555696979049809791, -0.9766639214595175115, -0.94297457122897433941, -0.89499199787827536885, -0.83344262876083400142, -0.75925926303735763058, -0.67356636847346836449, -0.57766293024122296772, -0.47300273144571496052, -0.36117230580938783774, -0.24386688372098843205, -0.12286469261071039639, 0., 0.12286469261071039639, 0.24386688372098843205, 0.36117230580938783774, 0.47300273144571496052, 0.57766293024122296772, 0.67356636847346836449, 0.75925926303735763058, 0.83344262876083400142, 0.89499199787827536885, 0.94297457122897433941, 0.9766639214595175115, 0.99555696979049809791 };
      sina::kernel::scalar_t gauss_legendre_weights_25[] = { 0.011393798501026287948, 0.026354986615032137262, 0.040939156701306312656, 0.054904695975835191926, 0.068038333812356917207, 0.080140700335001018013, 0.091028261982963649811, 0.1005359490670506442, 0.10851962447426365312, 0.11485825914571164834, 0.11945576353578477223, 0.12224244299031004169, 0.1231760537267154512, 0.12224244299031004169, 0.11945576353578477223, 0.11485825914571164834, 0.10851962447426365312, 0.1005359490670506442, 0.091028261982963649811, 0.080140700335001018013, 0.068038333812356917207, 0.054904695975835191926, 0.040939156701306312656, 0.026354986615032137262, 0.011393798501026287948 };

      sina::kernel::scalar_t gauss_legendre_points_26[] = { -0.995885701145616929, -0.9783854459564709911, -0.94715906666171425014, -0.90263786198430707422, -0.8454459427884980188, -0.77638594882067885619, -0.69642726041995726486, -0.60669229301761806323, -0.5084407148245057177, -0.40305175512348630648, -0.29200483948595689514, -0.17685882035689018397, -0.059230093429313207094, 0.059230093429313207094, 0.17685882035689018397, 0.29200483948595689514, 0.40305175512348630648, 0.5084407148245057177, 0.60669229301761806323, 0.69642726041995726486, 0.77638594882067885619, 0.8454459427884980188, 0.90263786198430707422, 0.94715906666171425014, 0.9783854459564709911, 0.995885701145616929 };
      sina::kernel::scalar_t gauss_legendre_weights_26[] = { 0.010551372617343007156, 0.02441785109263190879, 0.03796238329436276395, 0.050975825297147811998, 0.063274046329574835539, 0.074684149765659745887, 0.08504589431348523921, 0.094213800355914148464, 0.10205916109442542324, 0.10847184052857659066, 0.11336181654631966655, 0.11666044348529658204, 0.11832141527926227652, 0.11832141527926227652, 0.11666044348529658204, 0.11336181654631966655, 0.10847184052857659066, 0.10205916109442542324, 0.094213800355914148464, 0.08504589431348523921, 0.074684149765659745887, 0.063274046329574835539, 0.050975825297147811998, 0.03796238329436276395, 0.02441785109263190879, 0.010551372617343007156 };

      sina::kernel::scalar_t gauss_legendre_points_27[] = { -0.99617926288898856694, -0.97992347596150122286, -0.95090055781470500685, -0.9094823206774911043, -0.8562079080182944903, -0.79177163907050822714, -0.71701347373942369929, -0.63290797194649514093, -0.5405515645794568949, -0.44114825175002688059, -0.33599390363850889973, -0.22645936543953685886, -0.11397258560952996693, 0., 0.11397258560952996693, 0.22645936543953685886, 0.33599390363850889973, 0.44114825175002688059, 0.5405515645794568949, 0.63290797194649514093, 0.71701347373942369929, 0.79177163907050822714, 0.8562079080182944903, 0.9094823206774911043, 0.95090055781470500685, 0.97992347596150122286, 0.99617926288898856694 };
      sina::kernel::scalar_t gauss_legendre_weights_27[] = { 0.0097989960512943602612, 0.022686231596180623196, 0.035297053757419711023, 0.047449412520615062704, 0.05898353685983359911, 0.069748823766245592984, 0.079604867773057771263, 0.088423158543756950194, 0.096088727370028507566, 0.10250163781774579867, 0.10757828578853318721, 0.11125248835684519267, 0.11347634610896514862, 0.11422086737895698905, 0.11347634610896514862, 0.11125248835684519267, 0.10757828578853318721, 0.10250163781774579867, 0.096088727370028507566, 0.088423158543756950194, 0.079604867773057771263, 0.069748823766245592984, 0.05898353685983359911, 0.047449412520615062704, 0.035297053757419711023, 0.022686231596180623196, 0.0097989960512943602612 };

      sina::kernel::scalar_t gauss_legendre_points_28[] = { -0.99644249757395444995, -0.98130316537087275369, -0.95425928062893819725, -0.91563302639213207387, -0.86589252257439504894, -0.80564137091717917145, -0.73561087801363177203, -0.65665109403886496122, -0.56972047181140171931, -0.47587422495511826103, -0.37625151608907871022, -0.27206162763517807768, -0.16456928213338077128, -0.055079289884034270427, 0.055079289884034270427, 0.16456928213338077128, 0.27206162763517807768, 0.37625151608907871022, 0.47587422495511826103, 0.56972047181140171931, 0.65665109403886496122, 0.73561087801363177203, 0.80564137091717917145, 0.86589252257439504894, 0.91563302639213207387, 0.95425928062893819725, 0.98130316537087275369, 0.99644249757395444995 };
      sina::kernel::scalar_t gauss_legendre_weights_28[] = { 0.0091242825930945177388, 0.021132112592771259752, 0.032901427782304379978, 0.04427293475900422784, 0.055107345675716745431, 0.065272923966999595793, 0.074646214234568779024, 0.08311341722890121839, 0.090571744393032840942, 0.09693065799792991585, 0.10211296757806076981, 0.10605576592284641791, 0.10871119225829413525, 0.11004701301647519628, 0.11004701301647519628, 0.10871119225829413525, 0.10605576592284641791, 0.10211296757806076981, 0.09693065799792991585, 0.090571744393032840942, 0.08311341722890121839, 0.074646214234568779024, 0.065272923966999595793, 0.055107345675716745431, 0.04427293475900422784, 0.032901427782304379978, 0.021132112592771259752, 0.0091242825930945177388 };

      sina::kernel::scalar_t gauss_legendre_points_29[] = { -0.99667944226059658616, -0.98254550526141317487, -0.9572855957780877258, -0.92118023295305878509, -0.87463780492010279042, -0.81818548761525244499, -0.75246285173447713391, -0.67821453760268651516, -0.59628179713822782038, -0.5075929551242276421, -0.41315288817400866389, -0.31403163786763993495, -0.21135228616600107451, -0.10627823013267923017, 0., 0.10627823013267923017, 0.21135228616600107451, 0.31403163786763993495, 0.41315288817400866389, 0.5075929551242276421, 0.59628179713822782038, 0.67821453760268651516, 0.75246285173447713391, 0.81818548761525244499, 0.87463780492010279042, 0.92118023295305878509, 0.9572855957780877258, 0.98254550526141317487, 0.99667944226059658616 };
      sina::kernel::scalar_t gauss_legendre_weights_29[] = { 0.0085169038787464096543, 0.019732085056122705984, 0.030740492202093622644, 0.041402062518682836105, 0.051594826902497923913, 0.061203090657079138542, 0.07011793325505127857, 0.078238327135763783828, 0.085472257366172527545, 0.091737757139258763348, 0.096963834094408606302, 0.10109127375991496612, 0.10407331007772937391, 0.10587615509732094141, 0.10647938171831424425, 0.10587615509732094141, 0.10407331007772937391, 0.10109127375991496612, 0.096963834094408606302, 0.091737757139258763348, 0.085472257366172527545, 0.078238327135763783828, 0.07011793325505127857, 0.061203090657079138542, 0.051594826902497923913, 0.041402062518682836105, 0.030740492202093622644, 0.019732085056122705984, 0.0085169038787464096543 };

      sina::kernel::scalar_t gauss_legendre_points_30[] = { -0.99689348407464954027, -0.98366812327974720997, -0.96002186496830751222, -0.92620004742927432588, -0.88256053579205268154, -0.82956576238276839744, -0.76777743210482619492, -0.69785049479331579693, -0.62052618298924286114, -0.53662414814201989926, -0.44703376953808917678, -0.35270472553087811347, -0.25463692616788984644, -0.15386991360858354696, -0.051471842555317695833, 0.051471842555317695833, 0.15386991360858354696, 0.25463692616788984644, 0.35270472553087811347, 0.44703376953808917678, 0.53662414814201989926, 0.62052618298924286114, 0.69785049479331579693, 0.76777743210482619492, 0.82956576238276839744, 0.88256053579205268154, 0.92620004742927432588, 0.96002186496830751222, 0.98366812327974720997, 0.99689348407464954027 };
      sina::kernel::scalar_t gauss_legendre_weights_30[] = { 0.0079681924961666056155, 0.018466468311090959142, 0.02878470788332336935, 0.038799192569627049597, 0.048402672830594052903, 0.057493156217619066482, 0.065974229882180495128, 0.073755974737705206268, 0.080755895229420215355, 0.086899787201082979802, 0.092122522237786128718, 0.096368737174644259639, 0.099593420586795267063, 0.1017623897484055046, 0.10285265289355884034, 0.10285265289355884034, 0.1017623897484055046, 0.099593420586795267063, 0.096368737174644259639, 0.092122522237786128718, 0.086899787201082979802, 0.080755895229420215355, 0.073755974737705206268, 0.065974229882180495128, 0.057493156217619066482, 0.048402672830594052903, 0.038799192569627049597, 0.02878470788332336935, 0.018466468311090959142, 0.0079681924961666056155 };

      sina::kernel::scalar_t gauss_legendre_points_31[] = { -0.99708748181947707406, -0.984685909665152484, -0.96250392509294966179, -0.93075699789664816496, -0.88976002994827104337, -0.83992032014626734009, -0.78173314841662494041, -0.71577678458685328391, -0.64270672292426034618, -0.56324916140714926272, -0.47819378204490248044, -0.38838590160823294306, -0.29471806998170161662, -0.19812119933557062877, -0.099555312152341520325, 0., 0.099555312152341520325, 0.19812119933557062877, 0.29471806998170161662, 0.38838590160823294306, 0.47819378204490248044, 0.56324916140714926272, 0.64270672292426034618, 0.71577678458685328391, 0.78173314841662494041, 0.83992032014626734009, 0.88976002994827104337, 0.93075699789664816496, 0.96250392509294966179, 0.984685909665152484, 0.99708748181947707406 };
      sina::kernel::scalar_t gauss_legendre_weights_31[] = { 0.0074708315792487758587, 0.017318620790310582463, 0.027009019184979421801, 0.036432273912385464024, 0.045493707527201102902, 0.054103082424916853712, 0.06217478656102842691, 0.069628583235410366168, 0.076390386598776616426, 0.082392991761589263904, 0.087576740608477876126, 0.091890113893641478215, 0.095290242912319512807, 0.097743335386328725093, 0.099225011226672307875, 0.099720544793426451428, 0.099225011226672307875, 0.097743335386328725093, 0.095290242912319512807, 0.091890113893641478215, 0.087576740608477876126, 0.082392991761589263904, 0.076390386598776616426, 0.069628583235410366168, 0.06217478656102842691, 0.054103082424916853712, 0.045493707527201102902, 0.036432273912385464024, 0.027009019184979421801, 0.017318620790310582463, 0.0074708315792487758587 };

      sina::kernel::scalar_t gauss_legendre_points_32[] = { -0.99726386184948156354, -0.9856115115452683354, -0.96476225558750643077, -0.93490607593773968917, -0.89632115576605212397, -0.84936761373256997013, -0.79448379596794240696, -0.73218211874028968039, -0.66304426693021520098, -0.58771575724076232904, -0.50689990893222939002, -0.42135127613063534536, -0.33186860228212764978, -0.23928736225213707454, -0.14447196158279649349, -0.048307665687738316235, 0.048307665687738316235, 0.14447196158279649349, 0.23928736225213707454, 0.33186860228212764978, 0.42135127613063534536, 0.50689990893222939002, 0.58771575724076232904, 0.66304426693021520098, 0.73218211874028968039, 0.79448379596794240696, 0.84936761373256997013, 0.89632115576605212397, 0.93490607593773968917, 0.96476225558750643077, 0.9856115115452683354, 0.99726386184948156354 };
      sina::kernel::scalar_t gauss_legendre_weights_32[] = { 0.0070186100094700966004, 0.016274394730905670605, 0.025392065309262059456, 0.034273862913021433103, 0.042835898022226680657, 0.050998059262376176196, 0.058684093478535547145, 0.065822222776361846838, 0.072345794108848506225, 0.078193895787070306472, 0.083311924226946755222, 0.087652093004403811143, 0.091173878695763884713, 0.093844399080804565639, 0.095638720079274859419, 0.096540088514727800567, 0.096540088514727800567, 0.095638720079274859419, 0.093844399080804565639, 0.091173878695763884713, 0.087652093004403811143, 0.083311924226946755222, 0.078193895787070306472, 0.072345794108848506225, 0.065822222776361846838, 0.058684093478535547145, 0.050998059262376176196, 0.042835898022226680657, 0.034273862913021433103, 0.025392065309262059456, 0.016274394730905670605, 0.0070186100094700966004 };

      sina::kernel::scalar_t gauss_legendre_points_33[] = { -0.99742469424645521727, -0.98645572623064248811, -0.96682290968999276893, -0.93869437261116835036, -0.90231676774343358304, -0.85800965267650406464, -0.8061623562741665898, -0.74723049644956215786, -0.68173195996974278627, -0.61024234583637902731, -0.53338990478634764355, -0.45185001727245069573, -0.36633925774807334107, -0.2776090971524970294, -0.18643929882799157234, -0.093631065854733385671, 0., 0.093631065854733385671, 0.18643929882799157234, 0.2776090971524970294, 0.36633925774807334107, 0.45185001727245069573, 0.53338990478634764355, 0.61024234583637902731, 0.68173195996974278627, 0.74723049644956215786, 0.8061623562741665898, 0.85800965267650406464, 0.90231676774343358304, 0.93869437261116835036, 0.96682290968999276893, 0.98645572623064248811, 0.99742469424645521727 };
      sina::kernel::scalar_t gauss_legendre_weights_33[] = { 0.0066062278475873780586, 0.015321701512934676128, 0.023915548101749480351, 0.032300358632328953282, 0.040401541331669591563, 0.04814774281871169567, 0.055470846631663561285, 0.062306482530317480032, 0.068594572818656712806, 0.074279854843954149342, 0.079312364794886738364, 0.083647876067038707614, 0.087248287618844337607, 0.09008195866063857724, 0.092123986643316846213, 0.093356426065596116161, 0.093768446160209996567, 0.093356426065596116161, 0.092123986643316846213, 0.09008195866063857724, 0.087248287618844337607, 0.083647876067038707614, 0.079312364794886738364, 0.074279854843954149342, 0.068594572818656712806, 0.062306482530317480032, 0.055470846631663561285, 0.04814774281871169567, 0.040401541331669591563, 0.032300358632328953282, 0.023915548101749480351, 0.015321701512934676128, 0.0066062278475873780586 };

      sina::kernel::scalar_t gauss_legendre_points_34[] = { -0.99757175379084191924, -0.98722781640630948505, -0.96870826253334428176, -0.94216239740510709163, -0.9078096777183244688, -0.86593463833456446926, -0.81688422790093366459, -0.76106487662987301419, -0.69893911321626290793, -0.63102172708052854532, -0.55787550066974664274, -0.48010654519032703419, -0.39835927775864594063, -0.31331108133946324746, -0.22566669161644948387, -0.13615235725918297589, -0.045509821953102542749, 0.045509821953102542749, 0.13615235725918297589, 0.22566669161644948387, 0.31331108133946324746, 0.39835927775864594063, 0.48010654519032703419, 0.55787550066974664274, 0.63102172708052854532, 0.69893911321626290793, 0.76106487662987301419, 0.81688422790093366459, 0.86593463833456446926, 0.9078096777183244688, 0.94216239740510709163, 0.96870826253334428176, 0.98722781640630948505, 0.99757175379084191924 };
      sina::kernel::scalar_t gauss_legendre_weights_34[] = { 0.0062291405559086847186, 0.014450162748595035415, 0.022563721985494970084, 0.030491380638446131809, 0.038166593796387516322, 0.045525611523353272454, 0.052507414572678106168, 0.059054135827524493194, 0.065111521554076411379, 0.070629375814255724999, 0.075561974660031931271, 0.079868444339771844739, 0.083513099699845655187, 0.086465739747035749784, 0.088701897835693869287, 0.090203044370640729574, 0.090956740330259873615, 0.090956740330259873615, 0.090203044370640729574, 0.088701897835693869287, 0.086465739747035749784, 0.083513099699845655187, 0.079868444339771844739, 0.075561974660031931271, 0.070629375814255724999, 0.065111521554076411379, 0.059054135827524493194, 0.052507414572678106168, 0.045525611523353272454, 0.038166593796387516322, 0.030491380638446131809, 0.022563721985494970084, 0.014450162748595035415, 0.0062291405559086847186 };

      sina::kernel::scalar_t gauss_legendre_points_35[] = { -0.99770656909960029726, -0.98793576444385149804, -0.97043761603922983322, -0.94534514820782732954, -0.91285426135931761446, -0.87321912502522233152, -0.82674989909222540683, -0.77381025228691255527, -0.71481450155662878326, -0.65022436466589038868, -0.58054534474976450993, -0.50632277324148861502, -0.42813754151781425419, -0.34660155443081394588, -0.26235294120929605797, -0.17605106116598956997, -0.088371343275659263601, 0., 0.088371343275659263601, 0.17605106116598956997, 0.26235294120929605797, 0.34660155443081394588, 0.42813754151781425419, 0.50632277324148861502, 0.58054534474976450993, 0.65022436466589038868, 0.71481450155662878326, 0.77381025228691255527, 0.82674989909222540683, 0.87321912502522233152, 0.91285426135931761446, 0.94534514820782732954, 0.97043761603922983322, 0.98793576444385149804, 0.99770656909960029726 };
      sina::kernel::scalar_t gauss_legendre_weights_35[] = { 0.0058834334204430849758, 0.013650828348361492266, 0.021322979911483580883, 0.028829260108894254049, 0.036110115863463380533, 0.043108422326170218782, 0.049769370401353529805, 0.056040816212370128578, 0.061873671966080188887, 0.067222285269086903964, 0.072044794772560064665, 0.076303457155442053539, 0.079964942242324262933, 0.08300059372885658838, 0.085386653392099125226, 0.087104446997183534243, 0.088140530430275462971, 0.088486794907104290638, 0.088140530430275462971, 0.087104446997183534243, 0.085386653392099125226, 0.08300059372885658838, 0.079964942242324262933, 0.076303457155442053539, 0.072044794772560064665, 0.067222285269086903964, 0.061873671966080188887, 0.056040816212370128578, 0.049769370401353529805, 0.043108422326170218782, 0.036110115863463380533, 0.028829260108894254049, 0.021322979911483580883, 0.013650828348361492266, 0.0058834334204430849758 };

      sina::kernel::scalar_t gauss_legendre_points_36[] = { -0.9978304624840858362, -0.98858647890221223807, -0.97202769104969794934, -0.9482729843995075452, -0.91749777451565906608, -0.87992980089039713198, -0.83584716699247530642, -0.78557623013220651283, -0.72948917159355658209, -0.6680012365855210621, -0.60156765813598053508, -0.53068028592624516164, -0.45586394443342026721, -0.37767254711968921632, -0.2966849953440282705, -0.21350089231686557894, -0.12873610380938478865, -0.043018198473708607227, 0.043018198473708607227, 0.12873610380938478865, 0.21350089231686557894, 0.2966849953440282705, 0.37767254711968921632, 0.45586394443342026721, 0.53068028592624516164, 0.60156765813598053508, 0.6680012365855210621, 0.72948917159355658209, 0.78557623013220651283, 0.83584716699247530642, 0.87992980089039713198, 0.91749777451565906608, 0.9482729843995075452, 0.97202769104969794934, 0.98858647890221223807, 0.9978304624840858362 };
      sina::kernel::scalar_t gauss_legendre_weights_36[] = { 0.0055657196642450453613, 0.012915947284065574405, 0.020181515297735471532, 0.027298621498568779094, 0.034213810770307229921, 0.040875750923644895474, 0.047235083490265978417, 0.053244713977759919092, 0.05886014424532481731, 0.064039797355015489556, 0.068745323835736442614, 0.072941885005653061354, 0.076598410645870674529, 0.079687828912071601909, 0.082187266704339709517, 0.084078218979661934933, 0.085346685739338627492, 0.08598327567039474749, 0.08598327567039474749, 0.085346685739338627492, 0.084078218979661934933, 0.082187266704339709517, 0.079687828912071601909, 0.076598410645870674529, 0.072941885005653061354, 0.068745323835736442614, 0.064039797355015489556, 0.05886014424532481731, 0.053244713977759919092, 0.047235083490265978417, 0.040875750923644895474, 0.034213810770307229921, 0.027298621498568779094, 0.020181515297735471532, 0.012915947284065574405, 0.0055657196642450453613 };

      sina::kernel::scalar_t gauss_legendre_points_37[] = { -0.99794458247791364894, -0.98918596321431918668, -0.97349303005648574433, -0.95097234326209482133, -0.92178143741246374267, -0.88612496215548607895, -0.84425298734055596799, -0.79645920050990229339, -0.74307883398196526255, -0.68448630913095935745, -0.62109260840892448315, -0.55334239186158178124, -0.48171087780320555415, -0.4067005093183261101, -0.3288374298837069995, -0.24866779279136575881, -0.16675393023985197697, -0.083670408954769901943, 0., 0.083670408954769901943, 0.16675393023985197697, 0.24866779279136575881, 0.3288374298837069995, 0.4067005093183261101, 0.48171087780320555415, 0.55334239186158178124, 0.62109260840892448315, 0.68448630913095935745, 0.74307883398196526255, 0.79645920050990229339, 0.84425298734055596799, 0.88612496215548607895, 0.92178143741246374267, 0.95097234326209482133, 0.97349303005648574433, 0.98918596321431918668, 0.99794458247791364894 };
      sina::kernel::scalar_t gauss_legendre_weights_37[] = { 0.0052730572794979393517, 0.012238780100307556526, 0.019129044489083966044, 0.025886036990558933523, 0.032461639847521481067, 0.038809602501934544489, 0.044885364662437166657, 0.050646297654824601604, 0.056051987998274917809, 0.061064516523225986131, 0.065648722872751249484, 0.069772451555700344885, 0.073406777248488172725, 0.076526207570529237886, 0.079108861837529380767, 0.08113662450846503051, 0.082595272236437250891, 0.083474573625862787252, 0.083768360993138904797, 0.083474573625862787252, 0.082595272236437250891, 0.08113662450846503051, 0.079108861837529380767, 0.076526207570529237886, 0.073406777248488172725, 0.069772451555700344885, 0.065648722872751249484, 0.061064516523225986131, 0.056051987998274917809, 0.050646297654824601604, 0.044885364662437166657, 0.038809602501934544489, 0.032461639847521481067, 0.025886036990558933523, 0.019129044489083966044, 0.012238780100307556526, 0.0052730572794979393517 };

      sina::kernel::scalar_t gauss_legendre_points_38[] = { -0.99804993053568761981, -0.98973945426638557194, -0.97484632859015350764, -0.95346633093352959567, -0.92574133204858439683, -0.89185573900463221679, -0.85203502193236218886, -0.80654416760531681555, -0.75568590375397068074, -0.69979868037918435591, -0.63925441582968170718, -0.57445602104780708113, -0.50583471792793110324, -0.43384716943237648437, -0.35897244047943501326, -0.28170880979016526136, -0.2025704538921167032, -0.12208402533786741987, -0.040785147904578239913, 0.040785147904578239913, 0.12208402533786741987, 0.2025704538921167032, 0.28170880979016526136, 0.35897244047943501326, 0.43384716943237648437, 0.50583471792793110324, 0.57445602104780708113, 0.63925441582968170718, 0.69979868037918435591, 0.75568590375397068074, 0.80654416760531681555, 0.85203502193236218886, 0.89185573900463221679, 0.92574133204858439683, 0.95346633093352959567, 0.97484632859015350764, 0.98973945426638557194, 0.99804993053568761981 };
      sina::kernel::scalar_t gauss_legendre_weights_38[] = { 0.0050028807496393456759, 0.011613444716468674178, 0.018156577709613236899, 0.024579739738232375895, 0.030839500545175054659, 0.036894081594024738165, 0.042703158504674434236, 0.048228061860758683374, 0.053432019910332319974, 0.058280399146997206022, 0.062740933392133054053, 0.066783937979140411935, 0.070382507066898954739, 0.073512692584743457145, 0.076153663548446396066, 0.078287844658210948075, 0.079901033243527821586, 0.080982493770597100623, 0.081525029280385786699, 0.081525029280385786699, 0.080982493770597100623, 0.079901033243527821586, 0.078287844658210948075, 0.076153663548446396066, 0.073512692584743457145, 0.070382507066898954739, 0.066783937979140411935, 0.062740933392133054053, 0.058280399146997206022, 0.053432019910332319974, 0.048228061860758683374, 0.042703158504674434236, 0.036894081594024738165, 0.030839500545175054659, 0.024579739738232375895, 0.018156577709613236899, 0.011613444716468674178, 0.0050028807496393456759 };

      sina::kernel::scalar_t gauss_legendre_points_39[] = { -0.99814738306643290601, -0.99025153685468598364, -0.97609870933347105384, -0.95577521232465227711, -0.9294091484867382297, -0.89716711929299288785, -0.85925293799990615391, -0.81590629743014310435, -0.76740124293106349983, -0.71404443589453467913, -0.65617321343201091073, -0.59415345495727798869, -0.5283772686604374739, -0.45926051230913604866, -0.38724016397156145585, -0.31277155924818592254, -0.23632551246183576734, -0.15838533999783779992, -0.079443804608755477582, 0., 0.079443804608755477582, 0.15838533999783779992, 0.23632551246183576734, 0.31277155924818592254, 0.38724016397156145585, 0.45926051230913604866, 0.5283772686604374739, 0.59415345495727798869, 0.65617321343201091073, 0.71404443589453467913, 0.76740124293106349983, 0.81590629743014310435, 0.85925293799990615391, 0.89716711929299288785, 0.9294091484867382297, 0.95577521232465227711, 0.97609870933347105384, 0.99025153685468598364, 0.99814738306643290601 };
      sina::kernel::scalar_t gauss_legendre_weights_39[] = { 0.0047529446916351013708, 0.011034788939164594243, 0.017256229093724919041, 0.023369384832178164595, 0.029334955983903378592, 0.035115111498131330761, 0.040673276847933843939, 0.045974301108916631884, 0.050984665292129405214, 0.055672690340916299907, 0.060008736088596149575, 0.063965388138682388987, 0.067517630966231265363, 0.07064300597060876077, 0.073321753414268617381, 0.075536937322836057705, 0.077274552544682016729, 0.078523613287371176725, 0.07927622256836847101, 0.079527622139442852417, 0.07927622256836847101, 0.078523613287371176725, 0.077274552544682016729, 0.075536937322836057705, 0.073321753414268617381, 0.07064300597060876077, 0.067517630966231265363, 0.063965388138682388987, 0.060008736088596149575, 0.055672690340916299907, 0.050984665292129405214, 0.045974301108916631884, 0.040673276847933843939, 0.035115111498131330761, 0.029334955983903378592, 0.023369384832178164595, 0.017256229093724919041, 0.011034788939164594243, 0.0047529446916351013708 };

      sina::kernel::scalar_t gauss_legendre_points_40[] = { -0.99823770971055920035, -0.99072623869945700645, -0.97725994998377426266, -0.9579168192137916558, -0.93281280827867653336, -0.90209880696887429673, -0.86595950321225950382, -0.8246122308333116632, -0.77830565142651938769, -0.72731825518992710328, -0.67195668461417954838, -0.61255388966798023795, -0.54946712509512820208, -0.48307580168617871291, -0.41377920437160500152, -0.34199409082575847301, -0.26815218500725368114, -0.19269758070137109972, -0.11608407067525520848, -0.038772417506050821933, 0.038772417506050821933, 0.11608407067525520848, 0.19269758070137109972, 0.26815218500725368114, 0.34199409082575847301, 0.41377920437160500152, 0.48307580168617871291, 0.54946712509512820208, 0.61255388966798023795, 0.67195668461417954838, 0.72731825518992710328, 0.77830565142651938769, 0.8246122308333116632, 0.86595950321225950382, 0.90209880696887429673, 0.93281280827867653336, 0.9579168192137916558, 0.97725994998377426266, 0.99072623869945700645, 0.99823770971055920035 };
      sina::kernel::scalar_t gauss_legendre_weights_40[] = { 0.0045212770985331912585, 0.010498284531152813615, 0.016421058381907888713, 0.022245849194166957262, 0.027937006980023401098, 0.033460195282547847393, 0.03878216797447201764, 0.043870908185673271992, 0.048695807635072232061, 0.053227846983936824355, 0.057439769099391551367, 0.061306242492928939167, 0.064804013456601038075, 0.067912045815233903826, 0.070611647391286779695, 0.072886582395804059061, 0.0747231690579682642, 0.076110361900626242372, 0.077039818164247965588, 0.077505947978424811264, 0.077505947978424811264, 0.077039818164247965588, 0.076110361900626242372, 0.0747231690579682642, 0.072886582395804059061, 0.070611647391286779695, 0.067912045815233903826, 0.064804013456601038075, 0.061306242492928939167, 0.057439769099391551367, 0.053227846983936824355, 0.048695807635072232061, 0.043870908185673271992, 0.03878216797447201764, 0.033460195282547847393, 0.027937006980023401098, 0.022245849194166957262, 0.016421058381907888713, 0.010498284531152813615, 0.0045212770985331912585 };

      sina::kernel::scalar_t gauss_legendre_points_41[] = { -0.99832158857477144152, -0.99116710969901630825, -0.97833867356108338447, -0.9599068917303462261, -0.93597698749785382568, -0.90668594475810117296, -0.87220151169244140883, -0.83272120040136133124, -0.78847114504740937274, -0.73970480306992618106, -0.68670150203495128958, -0.62976483907219632049, -0.56922094161021586965, -0.50541659919940603271, -0.43871727705140708852, -0.36950502264048144143, -0.29817627734182486592, -0.22513960563342277561, -0.15081335486399216357, -0.075623258989162996924, 0., 0.075623258989162996924, 0.15081335486399216357, 0.22513960563342277561, 0.29817627734182486592, 0.36950502264048144143, 0.43871727705140708852, 0.50541659919940603271, 0.56922094161021586965, 0.62976483907219632049, 0.68670150203495128958, 0.73970480306992618106, 0.78847114504740937274, 0.83272120040136133124, 0.87220151169244140883, 0.90668594475810117296, 0.93597698749785382568, 0.9599068917303462261, 0.97833867356108338447, 0.99116710969901630825, 0.99832158857477144152 };
      sina::kernel::scalar_t gauss_legendre_weights_41[] = { 0.004306140358164887684, 0.0099999387739059453385, 0.015644938407818588531, 0.021201063368779553076, 0.026635899207110445468, 0.031918211731699281787, 0.037017716703507988435, 0.041905195195909689429, 0.046552648369014342061, 0.050933454294617494781, 0.05502251924257874188, 0.058796420949871944991, 0.062233542580966316472, 0.065314196453527410436, 0.068020736760876766736, 0.070337660620817497482, 0.072251696861023073396, 0.073751882027223469939, 0.074829623176221551891, 0.075478747092715824027, 0.075695535647298372319, 0.075478747092715824027, 0.074829623176221551891, 0.073751882027223469939, 0.072251696861023073396, 0.070337660620817497482, 0.068020736760876766736, 0.065314196453527410436, 0.062233542580966316472, 0.058796420949871944991, 0.05502251924257874188, 0.050933454294617494781, 0.046552648369014342061, 0.041905195195909689429, 0.037017716703507988435, 0.031918211731699281787, 0.026635899207110445468, 0.021201063368779553076, 0.015644938407818588531, 0.0099999387739059453385, 0.004306140358164887684 };

      sina::kernel::scalar_t gauss_legendre_points_42[] = { -0.99839961899006241502, -0.99157728834086091979, -0.97934250806374819371, -0.96175936533820448875, -0.93892355735498817853, -0.91095972490412745258, -0.87802056981217274271, -0.84028598326181690093, -0.79796205325548741323, -0.75127993568948048957, -0.70049459055617121374, -0.64588338886924783396, -0.58774459748510932284, -0.52639574993119228759, -0.46217191207042192976, -0.39542385204297505768, -0.3265161244654115122, -0.25582507934287908397, -0.18373680656485455085, -0.11064502720851986835, -0.036948943165351775813, 0.036948943165351775813, 0.11064502720851986835, 0.18373680656485455085, 0.25582507934287908397, 0.3265161244654115122, 0.39542385204297505768, 0.46217191207042192976, 0.52639574993119228759, 0.58774459748510932284, 0.64588338886924783396, 0.70049459055617121374, 0.75127993568948048957, 0.79796205325548741323, 0.84028598326181690093, 0.87802056981217274271, 0.91095972490412745258, 0.93892355735498817853, 0.96175936533820448875, 0.97934250806374819371, 0.99157728834086091979, 0.99839961899006241502 };
      sina::kernel::scalar_t gauss_legendre_weights_42[] = { 0.0041059986046490846106, 0.0095362203017485024118, 0.014922443697357494145, 0.020227869569052644757, 0.025422959526113047887, 0.030479240699603468363, 0.035369071097592110833, 0.040065735180692261761, 0.044543577771965877874, 0.048778140792803245027, 0.052746295699174070344, 0.056426369358018381646, 0.059798262227586654313, 0.062843558045002576409, 0.065545624364908978927, 0.067889703376521944855, 0.069862992492594159766, 0.071454714265170982922, 0.072656175243804104888, 0.073460813453467528264, 0.073864234232172879996, 0.073864234232172879996, 0.073460813453467528264, 0.072656175243804104888, 0.071454714265170982922, 0.069862992492594159766, 0.067889703376521944855, 0.065545624364908978927, 0.062843558045002576409, 0.059798262227586654313, 0.056426369358018381646, 0.052746295699174070344, 0.048778140792803245027, 0.044543577771965877874, 0.040065735180692261761, 0.035369071097592110833, 0.030479240699603468363, 0.025422959526113047887, 0.020227869569052644757, 0.014922443697357494145, 0.0095362203017485024118, 0.0041059986046490846106 };

      sina::kernel::scalar_t gauss_legendre_points_43[] = { -0.99847233224250771352, -0.99195955759324414642, -0.98027822098025533151, -0.96348661301407999341, -0.94167195684763786182, -0.91494790720613872946, -0.88345376521861686334, -0.847353716209315049, -0.80683596413693863528, -0.76211174719495512146, -0.71341423526895705485, -0.66099731375149813317, -0.60513425963960093573, -0.54611631666008471914, -0.48425117678573472407, -0.41986137602926925249, -0.35328261286430380665, -0.28486199803291362711, -0.21495624486051820901, -0.14392980951071331077, -0.072152990874586235422, 0., 0.072152990874586235422, 0.14392980951071331077, 0.21495624486051820901, 0.28486199803291362711, 0.35328261286430380665, 0.41986137602926925249, 0.48425117678573472407, 0.54611631666008471914, 0.60513425963960093573, 0.66099731375149813317, 0.71341423526895705485, 0.76211174719495512146, 0.80683596413693863528, 0.847353716209315049, 0.88345376521861686334, 0.91494790720613872946, 0.94167195684763786182, 0.96348661301407999341, 0.98027822098025533151, 0.99195955759324414642, 0.99847233224250771352 };
      sina::kernel::scalar_t gauss_legendre_weights_43[] = { 0.003919490253844127283, 0.0091039966374014033189, 0.014248756431576486109, 0.019319901423683900396, 0.024290456613838815902, 0.029134413261498494916, 0.033826492086860292345, 0.038342222194132657572, 0.042658057197982083764, 0.046751494754346580011, 0.050601192784390156524, 0.054187080318881786863, 0.057490461956910519428, 0.06049411524999129452, 0.063182380449396112326, 0.065541242126322797491, 0.067558402229365169192, 0.069223344193656684282, 0.070527387765085028126, 0.071463734252514141298, 0.072027501971421974345, 0.072215751693798987977, 0.072027501971421974345, 0.071463734252514141298, 0.070527387765085028126, 0.069223344193656684282, 0.067558402229365169192, 0.065541242126322797491, 0.063182380449396112326, 0.06049411524999129452, 0.057490461956910519428, 0.054187080318881786863, 0.050601192784390156524, 0.046751494754346580011, 0.042658057197982083764, 0.038342222194132657572, 0.033826492086860292345, 0.029134413261498494916, 0.024290456613838815902, 0.019319901423683900396, 0.014248756431576486109, 0.0091039966374014033189, 0.003919490253844127283 };

      sina::kernel::scalar_t gauss_legendre_points_44[] = { -0.99854020063677422494, -0.99231639213851580848, -0.98115183307791396666, -0.96509965042249313939, -0.9442395091181940992, -0.91867525998417577432, -0.88853423828604320234, -0.85396659500471037873, -0.81514453964513501049, -0.77226147924875589902, -0.72553105366071700261, -0.67518607066612236533, -0.6214773459035758478, -0.56467245318547076842, -0.50505439138820231798, -0.44292017452541148383, -0.37857935201470713251, -0.31235246650278581224, -0.24456945692820125151, -0.17556801477551678575, -0.10569190170865324712, -0.035289236964135359058, 0.035289236964135359058, 0.10569190170865324712, 0.17556801477551678575, 0.24456945692820125151, 0.31235246650278581224, 0.37857935201470713251, 0.44292017452541148383, 0.50505439138820231798, 0.56467245318547076842, 0.6214773459035758478, 0.67518607066612236533, 0.72553105366071700261, 0.77226147924875589902, 0.81514453964513501049, 0.85396659500471037873, 0.88853423828604320234, 0.91867525998417577432, 0.9442395091181940992, 0.96509965042249313939, 0.98115183307791396666, 0.99231639213851580848, 0.99854020063677422494 };
      sina::kernel::scalar_t gauss_legendre_weights_44[] = { 0.0037454048031127775152, 0.0087004813675248441226, 0.01361958675557998552, 0.018471481736814749172, 0.023231481902019210629, 0.027875782821281010081, 0.032381222812069820881, 0.036725347813808873643, 0.040886512310346218908, 0.044843984081970031446, 0.048578046448352037528, 0.052070096091704461881, 0.055302735563728052549, 0.058259859877595495334, 0.060926736701561968039, 0.06329007973320385495, 0.065338114879181434984, 0.067060638906293652396, 0.068449070269366660985, 0.069496491861572578037, 0.070197685473558212587, 0.070549157789354068811, 0.070549157789354068811, 0.070197685473558212587, 0.069496491861572578037, 0.068449070269366660985, 0.067060638906293652396, 0.065338114879181434984, 0.06329007973320385495, 0.060926736701561968039, 0.058259859877595495334, 0.055302735563728052549, 0.052070096091704461881, 0.048578046448352037528, 0.044843984081970031446, 0.040886512310346218908, 0.036725347813808873643, 0.032381222812069820881, 0.027875782821281010081, 0.023231481902019210629, 0.018471481736814749172, 0.01361958675557998552, 0.0087004813675248441226, 0.0037454048031127775152 };

      sina::kernel::scalar_t gauss_legendre_points_45[] = { -0.99860364518193663816, -0.99264999844720374175, -0.98196871503454056824, -0.96660831039689460474, -0.94664169099562906178, -0.9221639367190003881, -0.89329167175324173846, -0.86016247596066422534, -0.82293422050208633704, -0.78178431259390629131, -0.73690884894549035262, -0.68852168077120052523, -0.63685339445322335927, -0.58215021256935318668, -0.52467282046291606709, -0.46469512391963509858, -0.40250294385854191408, -0.33839265425060216164, -0.27266976975237756061, -0.20564748978326374572, -0.13764520598325302876, -0.06898698016314417249, 0., 0.06898698016314417249, 0.13764520598325302876, 0.20564748978326374572, 0.27266976975237756061, 0.33839265425060216164, 0.40250294385854191408, 0.46469512391963509858, 0.52467282046291606709, 0.58215021256935318668, 0.63685339445322335927, 0.68852168077120052523, 0.73690884894549035262, 0.78178431259390629131, 0.82293422050208633704, 0.86016247596066422534, 0.89329167175324173846, 0.9221639367190003881, 0.94664169099562906178, 0.96660831039689460474, 0.98196871503454056824, 0.99264999844720374175, 0.99860364518193663816 };
      sina::kernel::scalar_t gauss_legendre_weights_45[] = { 0.0035826631552835589311, 0.0083231892962182416457, 0.013031104991582784321, 0.017677535257937590617, 0.022239847550578732394, 0.026696213967577664806, 0.031025374934515467163, 0.035206692201609016248, 0.039220236729302447564, 0.043046880709164971152, 0.046668387718373365268, 0.050067499237952029799, 0.053228016731268951946, 0.056134878759786476644, 0.058774232718841738574, 0.061133500831066522502, 0.06320144007381993775, 0.064968195750723430854, 0.066425348449842528083, 0.067565954163607536271, 0.068384577378669674532, 0.068877316977661322882, 0.069041824829232020111, 0.068877316977661322882, 0.068384577378669674532, 0.067565954163607536271, 0.066425348449842528083, 0.064968195750723430854, 0.06320144007381993775, 0.061133500831066522502, 0.058774232718841738574, 0.056134878759786476644, 0.053228016731268951946, 0.050067499237952029799, 0.046668387718373365268, 0.043046880709164971152, 0.039220236729302447564, 0.035206692201609016248, 0.031025374934515467163, 0.026696213967577664806, 0.022239847550578732394, 0.017677535257937590617, 0.013031104991582784321, 0.0083231892962182416457, 0.0035826631552835589311 };

      sina::kernel::scalar_t gauss_legendre_points_46[] = { -0.99866304213381798113, -0.99296234890617436407, -0.98273366980416686348, -0.96802139185399194274, -0.94889236344608979562, -0.92543379880675395098, -0.8977527115339419657, -0.86597539486685806292, -0.83024683706606605303, -0.79073005707527425519, -0.747605359615666054, -0.70106951202040569751, -0.65133484620199771511, -0.59862828971271515318, -0.54319033026180263527, -0.48527391838816466277, -0.42514331328282839732, -0.36307287702099571012, -0.29934582270187001548, -0.23425292220626976863, -0.16809117946710352861, -0.10116247530558423952, -0.03377219001605204152, 0.03377219001605204152, 0.10116247530558423952, 0.16809117946710352861, 0.23425292220626976863, 0.29934582270187001548, 0.36307287702099571012, 0.42514331328282839732, 0.48527391838816466277, 0.54319033026180263527, 0.59862828971271515318, 0.65133484620199771511, 0.70106951202040569751, 0.747605359615666054, 0.79073005707527425519, 0.83024683706606605303, 0.86597539486685806292, 0.8977527115339419657, 0.92543379880675395098, 0.94889236344608979562, 0.96802139185399194274, 0.98273366980416686348, 0.99296234890617436407, 0.99866304213381798113 };
      sina::kernel::scalar_t gauss_legendre_weights_46[] = { 0.003430300868107048286, 0.0079698982297246224516, 0.012479883770988684207, 0.016933514007836238046, 0.021309998754136501054, 0.025589286397130010635, 0.029751829552202755799, 0.033778627999106896521, 0.037651305357386071328, 0.041352190109678729704, 0.044864395277318126767, 0.04817189510171220053, 0.051259598007143021335, 0.054113415385856754492, 0.056720325843991235817, 0.059068434595546314808, 0.061147027724650481015, 0.062946621064394508179, 0.064459003467139069588, 0.065677274267781207379, 0.066595874768454887376, 0.067210613600678175862, 0.06751868584903645882, 0.06751868584903645882, 0.067210613600678175862, 0.066595874768454887376, 0.065677274267781207379, 0.064459003467139069588, 0.062946621064394508179, 0.061147027724650481015, 0.059068434595546314808, 0.056720325843991235817, 0.054113415385856754492, 0.051259598007143021335, 0.04817189510171220053, 0.044864395277318126767, 0.041352190109678729704, 0.037651305357386071328, 0.033778627999106896521, 0.029751829552202755799, 0.025589286397130010635, 0.021309998754136501054, 0.016933514007836238046, 0.012479883770988684207, 0.0079698982297246224516, 0.003430300868107048286 };

      sina::kernel::scalar_t gauss_legendre_points_47[] = { -0.99871872858421210918, -0.99325521098776863469, -0.98345100307162370876, -0.96934678732656449715, -0.95100396925770844259, -0.9285026930123606482, -0.90194132943852535687, -0.87143601579689631694, -0.83712013989990212128, -0.79914375416774194292, -0.75767291844543863357, -0.71288897340906430166, -0.66498774739033272914, -0.6141786999563736086, -0.56068400593466419448, -0.50473758386357791977, -0.44658407310485570273, -0.38647776408466713958, -0.32468148633773590221, -0.26146545921497457031, -0.19710611027911180796, -0.13188486655451489705, -0.06608692391635567516, 0., 0.06608692391635567516, 0.13188486655451489705, 0.19710611027911180796, 0.26146545921497457031, 0.32468148633773590221, 0.38647776408466713958, 0.44658407310485570273, 0.50473758386357791977, 0.56068400593466419448, 0.6141786999563736086, 0.66498774739033272914, 0.71288897340906430166, 0.75767291844543863357, 0.79914375416774194292, 0.83712013989990212128, 0.87143601579689631694, 0.90194132943852535687, 0.9285026930123606482, 0.95100396925770844259, 0.96934678732656449715, 0.98345100307162370876, 0.99325521098776863469, 0.99871872858421210918 };
      sina::kernel::scalar_t gauss_legendre_weights_47[] = { 0.0032874538425280148832, 0.0076386162958488336141, 0.011962848464312320964, 0.016235333146433059671, 0.020436938147668427642, 0.024549211659658818538, 0.028554150700643386505, 0.032434235515184756768, 0.036172496584174951613, 0.039752586122531003781, 0.043158848648479538268, 0.046376389086505911204, 0.049391137747361169605, 0.052189911780057144872, 0.054760472781530225957, 0.057091580293231540222, 0.059173040942338875976, 0.060995753008739645331, 0.062551746220921662641, 0.063834216605717030631, 0.064837556238945726703, 0.065557377766549740251, 0.065990533588810474534, 0.066135129623655479653, 0.065990533588810474534, 0.065557377766549740251, 0.064837556238945726703, 0.063834216605717030631, 0.062551746220921662641, 0.060995753008739645331, 0.059173040942338875976, 0.057091580293231540222, 0.054760472781530225957, 0.052189911780057144872, 0.049391137747361169605, 0.046376389086505911204, 0.043158848648479538268, 0.039752586122531003781, 0.036172496584174951613, 0.032434235515184756768, 0.028554150700643386505, 0.024549211659658818538, 0.020436938147668427642, 0.016235333146433059671, 0.011962848464312320964, 0.0076386162958488336141, 0.0032874538425280148832 };

      sina::kernel::scalar_t gauss_legendre_points_48[] = { -0.9987710072524261186, -0.99353017226635075755, -0.98412458372282685774, -0.97059159254624725046, -0.95298770316043086072, -0.93138669070655433311, -0.90587913671556967282, -0.87657202027424788591, -0.84358826162439353071, -0.80706620402944262708, -0.76715903251574033925, -0.72403413092381465467, -0.67787237963266390521, -0.628867396776513624, -0.57722472608397270382, -0.52316097472223303368, -0.46690290475095840454, -0.40868648199071672992, -0.34875588629216073816, -0.28736248735545557674, -0.22476379039468906122, -0.16122235606889171806, -0.09700469920946269893, -0.032380170962869362033, 0.032380170962869362033, 0.09700469920946269893, 0.16122235606889171806, 0.22476379039468906122, 0.28736248735545557674, 0.34875588629216073816, 0.40868648199071672992, 0.46690290475095840454, 0.52316097472223303368, 0.57722472608397270382, 0.628867396776513624, 0.67787237963266390521, 0.72403413092381465467, 0.76715903251574033925, 0.80706620402944262708, 0.84358826162439353071, 0.87657202027424788591, 0.90587913671556967282, 0.93138669070655433311, 0.95298770316043086072, 0.97059159254624725046, 0.98412458372282685774, 0.99353017226635075755, 0.9987710072524261186 };
      sina::kernel::scalar_t gauss_legendre_weights_48[] = { 0.0031533460523058386327, 0.0073275539012762621024, 0.01147723457923453949, 0.015579315722943848728, 0.019616160457355527814, 0.023570760839324379141, 0.0274265097083569482, 0.031167227832798088902, 0.034777222564770438893, 0.038241351065830706317, 0.041545082943464749214, 0.044674560856694280419, 0.047616658492490474826, 0.050359035553854474958, 0.052890189485193667096, 0.055199503699984162868, 0.057277292100403215705, 0.059114839698395635746, 0.060704439165893880053, 0.062039423159892663904, 0.063114192286254025657, 0.063924238584648186624, 0.064466164435950082207, 0.064737696812683922503, 0.064737696812683922503, 0.064466164435950082207, 0.063924238584648186624, 0.063114192286254025657, 0.062039423159892663904, 0.060704439165893880053, 0.059114839698395635746, 0.057277292100403215705, 0.055199503699984162868, 0.052890189485193667096, 0.050359035553854474958, 0.047616658492490474826, 0.044674560856694280419, 0.041545082943464749214, 0.038241351065830706317, 0.034777222564770438893, 0.031167227832798088902, 0.0274265097083569482, 0.023570760839324379141, 0.019616160457355527814, 0.015579315722943848728, 0.01147723457923453949, 0.0073275539012762621024, 0.0031533460523058386327 };

      sina::kernel::scalar_t gauss_legendre_points_49[] = { -0.99882015060663537936, -0.99378866194416779076, -0.98475789591421300436, -0.97176220090155538014, -0.95485365867413723356, -0.93410029475581014906, -0.90958565582807328521, -0.88140844557300891004, -0.84968211984416570103, -0.81453442735985543154, -0.77610689434544663502, -0.73455425423740269621, -0.6900438244251321135, -0.64275483241923766406, -0.59287769410890071246, -0.54061324699172606656, -0.48617194145249204218, -0.42977299334157652466, -0.37164350126228488886, -0.31201753211974876221, -0.25113517861257727351, -0.18924159246181358649, -0.12658599726967205107, -0.063420684982686786029, 0., 0.063420684982686786029, 0.12658599726967205107, 0.18924159246181358649, 0.25113517861257727351, 0.31201753211974876221, 0.37164350126228488886, 0.42977299334157652466, 0.48617194145249204218, 0.54061324699172606656, 0.59287769410890071246, 0.64275483241923766406, 0.6900438244251321135, 0.73455425423740269621, 0.77610689434544663502, 0.81453442735985543154, 0.84968211984416570103, 0.88140844557300891004, 0.90958565582807328521, 0.93410029475581014906, 0.95485365867413723356, 0.97176220090155538014, 0.98475789591421300436, 0.99378866194416779076, 0.99882015060663537936 };
      sina::kernel::scalar_t gauss_legendre_weights_49[] = { 0.0030272789889229050775, 0.0070350995900864514735, 0.011020551031593580498, 0.01496214493562465103, 0.018843595853089458444, 0.022649201587446676499, 0.026363618927066016961, 0.029971884620583825351, 0.033459466791622174342, 0.036812320963000689819, 0.040016945766373021369, 0.043060436981259597988, 0.045930539355595853542, 0.048615695887828240278, 0.051105094330144590675, 0.053388710708258968528, 0.05545734967480358869, 0.057302681530187475485, 0.058917275760027266025, 0.060294630953152017303, 0.061429200979192936297, 0.062316417320057267401, 0.062952707465195699474, 0.063335509296491748591, 0.063463281404790597718, 0.063335509296491748591, 0.062952707465195699474, 0.062316417320057267401, 0.061429200979192936297, 0.060294630953152017303, 0.058917275760027266025, 0.057302681530187475485, 0.05545734967480358869, 0.053388710708258968528, 0.051105094330144590675, 0.048615695887828240278, 0.045930539355595853542, 0.043060436981259597988, 0.040016945766373021369, 0.036812320963000689819, 0.033459466791622174342, 0.029971884620583825351, 0.026363618927066016961, 0.022649201587446676499, 0.018843595853089458444, 0.01496214493562465103, 0.011020551031593580498, 0.0070350995900864514735, 0.0030272789889229050775 };

      sina::kernel::scalar_t gauss_legendre_points_50[] = { -0.99886640442007105019, -0.99403196943209071259, -0.98535408404800588231, -0.97286438510669207371, -0.956610955242807943, -0.93665661894487793378, -0.91307855665579189309, -0.88596797952361304864, -0.85542976942994608461, -0.82158207085933594836, -0.78455583290039926391, -0.74449430222606853826, -0.70155246870682225109, -0.65589646568543936078, -0.60770292718495023918, -0.55715830451465005432, -0.50445814490746420165, -0.44980633497403878915, -0.39341431189756512739, -0.33550024541943735684, -0.27628819377953199033, -0.21600723687604175685, -0.15489058999814590207, -0.093174701560086140854, -0.031098338327188876112, 0.031098338327188876112, 0.093174701560086140854, 0.15489058999814590207, 0.21600723687604175685, 0.27628819377953199033, 0.33550024541943735684, 0.39341431189756512739, 0.44980633497403878915, 0.50445814490746420165, 0.55715830451465005432, 0.60770292718495023918, 0.65589646568543936078, 0.70155246870682225109, 0.74449430222606853826, 0.78455583290039926391, 0.82158207085933594836, 0.85542976942994608461, 0.88596797952361304864, 0.91307855665579189309, 0.93665661894487793378, 0.956610955242807943, 0.97286438510669207371, 0.98535408404800588231, 0.99403196943209071259, 0.99886640442007105019 };
      sina::kernel::scalar_t gauss_legendre_weights_50[] = { 0.0029086225531551409584, 0.0067597991957454015028, 0.010590548383650969264, 0.014380822761485574419, 0.018115560713489390351, 0.021780243170124792982, 0.02536067357001239044, 0.02884299358053519803, 0.032213728223578016648, 0.035459835615146154161, 0.038568756612587675245, 0.041528463090147697422, 0.044327504338803275492, 0.046955051303948432966, 0.049400938449466314921, 0.05165570306958113849, 0.053710621888996246523, 0.055557744806212517624, 0.057189925647728383723, 0.058600849813222445835, 0.05978505870426545751, 0.060737970841770216032, 0.061455899590316663756, 0.061936067420683243384, 0.062176616655347262321, 0.062176616655347262321, 0.061936067420683243384, 0.061455899590316663756, 0.060737970841770216032, 0.05978505870426545751, 0.058600849813222445835, 0.057189925647728383723, 0.055557744806212517624, 0.053710621888996246523, 0.05165570306958113849, 0.049400938449466314921, 0.046955051303948432966, 0.044327504338803275492, 0.041528463090147697422, 0.038568756612587675245, 0.035459835615146154161, 0.032213728223578016648, 0.02884299358053519803, 0.02536067357001239044, 0.021780243170124792982, 0.018115560713489390351, 0.014380822761485574419, 0.010590548383650969264, 0.0067597991957454015028, 0.0029086225531551409584 };


      // Gauss-Lobatto points

      sina::kernel::scalar_t gauss_lobatto_points_2[] = { -1., 1. };
      sina::kernel::scalar_t gauss_lobatto_weights_2[] = { 1., 1. };

      sina::kernel::scalar_t gauss_lobatto_points_3[] = { -1., 0., 1. };
      sina::kernel::scalar_t gauss_lobatto_weights_3[] = { 0.33333333333333333333, 1.3333333333333333333, 0.33333333333333333333 };

      sina::kernel::scalar_t gauss_lobatto_points_4[] = { -1., -0.44721359549995793928, 0.44721359549995793928, 1. };
      sina::kernel::scalar_t gauss_lobatto_weights_4[] = { 0.16666666666666666667, 0.83333333333333333333, 0.83333333333333333333, 0.16666666666666666667 };

      sina::kernel::scalar_t gauss_lobatto_points_5[] = { -1., -0.6546536707079771438, 0., 0.6546536707079771438, 1. };
      sina::kernel::scalar_t gauss_lobatto_weights_5[] = { 0.1, 0.54444444444444444444, 0.71111111111111111111, 0.54444444444444444444, 0.1 };

      sina::kernel::scalar_t gauss_lobatto_points_6[] = { -1., -0.76505532392946469285, -0.28523151648064509631, 0.28523151648064509631, 0.76505532392946469285, 1. };
      sina::kernel::scalar_t gauss_lobatto_weights_6[] = { 0.066666666666666666667, 0.37847495629784698032, 0.55485837703548635302, 0.55485837703548635302, 0.37847495629784698032, 0.066666666666666666667 };

      sina::kernel::scalar_t gauss_lobatto_points_7[] = { -1., -0.83022389627856692987, -0.4688487934707142138, 0., 0.4688487934707142138, 0.83022389627856692987, 1. };
      sina::kernel::scalar_t gauss_lobatto_weights_7[] = { 0.047619047619047619048, 0.27682604736156594801, 0.43174538120986262342, 0.48761904761904761905, 0.43174538120986262342, 0.27682604736156594801, 0.047619047619047619048 };

      sina::kernel::scalar_t gauss_lobatto_points_8[] = { -1., -0.87174014850960661534, -0.59170018143314230214, -0.20929921790247886877, 0.20929921790247886877, 0.59170018143314230214, 0.87174014850960661534, 1. };
      sina::kernel::scalar_t gauss_lobatto_weights_8[] = { 0.035714285714285714286, 0.21070422714350603938, 0.34112269248350436476, 0.41245879465870388157, 0.41245879465870388157, 0.34112269248350436476, 0.21070422714350603938, 0.035714285714285714286 };

      sina::kernel::scalar_t gauss_lobatto_points_9[] = { -1., -0.89975799541146015731, -0.67718627951073775345, -0.36311746382617815871, 0., 0.36311746382617815871, 0.67718627951073775345, 0.89975799541146015731, 1. };
      sina::kernel::scalar_t gauss_lobatto_weights_9[] = { 0.027777777777777777778, 0.16549536156080552505, 0.27453871250016173528, 0.34642851097304634512, 0.37151927437641723356, 0.34642851097304634512, 0.27453871250016173528, 0.16549536156080552505, 0.027777777777777777778 };

      sina::kernel::scalar_t gauss_lobatto_points_10[] = { -1., -0.91953390816645881383, -0.738773865105505075, -0.47792494981044449566, -0.16527895766638702463, 0.16527895766638702463, 0.47792494981044449566, 0.738773865105505075, 0.91953390816645881383, 1. };
      sina::kernel::scalar_t gauss_lobatto_weights_10[] = { 0.022222222222222222222, 0.13330599085107011113, 0.22488934206312645212, 0.29204268367968375788, 0.32753976118389745666, 0.32753976118389745666, 0.29204268367968375788, 0.22488934206312645212, 0.13330599085107011113, 0.022222222222222222222 };

      sina::kernel::scalar_t gauss_lobatto_points_11[] = { -1., -0.93400143040805913433, -0.78448347366314441862, -0.56523532699620500647, -0.29575813558693939143, 0., 0.29575813558693939143, 0.56523532699620500647, 0.78448347366314441862, 0.93400143040805913433, 1. };
      sina::kernel::scalar_t gauss_lobatto_weights_11[] = { 0.018181818181818181818, 0.10961227326699486446, 0.18716988178030520411, 0.24804810426402831404, 0.28687912477900808868, 0.30021759545569069379, 0.28687912477900808868, 0.24804810426402831404, 0.18716988178030520411, 0.10961227326699486446, 0.018181818181818181818 };

      sina::kernel::scalar_t gauss_lobatto_points_12[] = { -1., -0.94489927222288222341, -0.81927932164400667835, -0.63287615303186067766, -0.39953094096534893226, -0.13655293285492755486, 0.13655293285492755486, 0.39953094096534893226, 0.63287615303186067766, 0.81927932164400667835, 0.94489927222288222341, 1. };
      sina::kernel::scalar_t gauss_lobatto_weights_12[] = { 0.015151515151515151515, 0.091684517413196130668, 0.15797470556437011516, 0.21250841776102114536, 0.25127560319920128029, 0.271405240910696177, 0.271405240910696177, 0.25127560319920128029, 0.21250841776102114536, 0.15797470556437011516, 0.091684517413196130668, 0.015151515151515151515 };

      sina::kernel::scalar_t gauss_lobatto_points_13[] = { -1., -0.9533098466421639119, -0.84634756465187231687, -0.68618846908175742607, -0.48290982109133620175, -0.24928693010623999257, 0., 0.24928693010623999257, 0.48290982109133620175, 0.68618846908175742607, 0.84634756465187231687, 0.9533098466421639119, 1. };
      sina::kernel::scalar_t gauss_lobatto_weights_13[] = { 0.012820512820512820513, 0.077801686746818927794, 0.13498192668960834912, 0.18364686520355009201, 0.22076779356611008609, 0.24401579030667635646, 0.25193084933344673604, 0.24401579030667635646, 0.22076779356611008609, 0.18364686520355009201, 0.13498192668960834912, 0.077801686746818927794, 0.012820512820512820513 };

      sina::kernel::scalar_t gauss_lobatto_points_14[] = { -1., -0.95993504526726090136, -0.867801053830347251, -0.72886859909132614058, -0.55063940292864705532, -0.34272401334271284504, -0.11633186888370386766, 0.11633186888370386766, 0.34272401334271284504, 0.55063940292864705532, 0.72886859909132614058, 0.867801053830347251, 0.95993504526726090136, 1. };
      sina::kernel::scalar_t gauss_lobatto_weights_14[] = { 0.010989010989010989011, 0.066837284497681284634, 0.11658665589871165154, 0.16002185176295214241, 0.19482614937341611864, 0.21912625300977075487, 0.23161279446845705889, 0.23161279446845705889, 0.21912625300977075487, 0.19482614937341611864, 0.16002185176295214241, 0.11658665589871165154, 0.066837284497681284634, 0.010989010989010989011 };

      sina::kernel::scalar_t gauss_lobatto_points_15[] = { -1., -0.9652459265038385728, -0.88508204422297629883, -0.7635196899518152007, -0.60625320546984571112, -0.42063805471367248092, -0.21535395536379423823, 0., 0.21535395536379423823, 0.42063805471367248092, 0.60625320546984571112, 0.7635196899518152007, 0.88508204422297629883, 0.9652459265038385728, 1. };
      sina::kernel::scalar_t gauss_lobatto_weights_15[] = { 0.0095238095238095238095, 0.058029893028601249097, 0.1016600703257180676, 0.14051169980242810946, 0.17278964725360094905, 0.19698723596461335609, 0.21197358592682092013, 0.21704811634881564951, 0.21197358592682092013, 0.19698723596461335609, 0.17278964725360094905, 0.14051169980242810946, 0.1016600703257180676, 0.058029893028601249097, 0.0095238095238095238095 };

      sina::kernel::scalar_t gauss_lobatto_points_16[] = { -1., -0.96956804627021793295, -0.89920053309347209299, -0.79200829186181506393, -0.65238870288249308947, -0.48605942188713761178, -0.2998304689007632081, -0.10132627352194944784, 0.10132627352194944784, 0.2998304689007632081, 0.48605942188713761178, 0.65238870288249308947, 0.79200829186181506393, 0.89920053309347209299, 0.96956804627021793295, 1. };
      sina::kernel::scalar_t gauss_lobatto_weights_16[] = { 0.0083333333333333333333, 0.050850361005919905403, 0.089393697325930800991, 0.12425538213251409835, 0.15402698080716428082, 0.1774919133917041253, 0.19369002382520358432, 0.20195830817822987149, 0.20195830817822987149, 0.19369002382520358432, 0.1774919133917041253, 0.15402698080716428082, 0.12425538213251409835, 0.089393697325930800991, 0.050850361005919905403, 0.0083333333333333333333 };

      sina::kernel::scalar_t gauss_lobatto_points_17[] = { -1., -0.97313217663141831416, -0.91087999591557359562, -0.81569625122177030711, -0.69102898062768470539, -0.54138539933010153912, -0.37217443356547704191, -0.1895119735183173883, 0., 0.1895119735183173883, 0.37217443356547704191, 0.54138539933010153912, 0.69102898062768470539, 0.81569625122177030711, 0.91087999591557359562, 0.97313217663141831416, 1. };
      sina::kernel::scalar_t gauss_lobatto_weights_17[] = { 0.0073529411764705882353, 0.044921940543254209647, 0.07919827050368711919, 0.11059290900702816138, 0.13798774620192655906, 0.16039466199762153952, 0.17700425351565787044, 0.18721633967761923589, 0.1906618747534694333, 0.18721633967761923589, 0.17700425351565787044, 0.16039466199762153952, 0.13798774620192655906, 0.11059290900702816138, 0.07919827050368711919, 0.044921940543254209647, 0.0073529411764705882353 };

      sina::kernel::scalar_t gauss_lobatto_points_18[] = { -1., -0.97610555741219854286, -0.92064918534753387384, -0.83559353521809021371, -0.72367932928324268131, -0.58850483431866176117, -0.43441503691212397534, -0.26636265287828098417, -0.089749093484652111023, 0.089749093484652111023, 0.26636265287828098417, 0.43441503691212397534, 0.58850483431866176117, 0.72367932928324268131, 0.83559353521809021371, 0.92064918534753387384, 0.97610555741219854286, 1. };
      sina::kernel::scalar_t gauss_lobatto_weights_18[] = { 0.0065359477124183006536, 0.039970628810914066138, 0.070637166885633664999, 0.099016271717502802394, 0.12421053313296710026, 0.14541196157380226798, 0.16193951723760248926, 0.17326210948945622601, 0.17901586343970308229, 0.17901586343970308229, 0.17326210948945622601, 0.16193951723760248926, 0.14541196157380226798, 0.12421053313296710026, 0.099016271717502802394, 0.070637166885633664999, 0.039970628810914066138, 0.0065359477124183006536 };

      sina::kernel::scalar_t gauss_lobatto_points_19[] = { -1., -0.97861176622208009515, -0.92890152815258624372, -0.85246057779664609309, -0.75149420255261301416, -0.62890813726522049777, -0.48822928568071350278, -0.3335048478244986103, -0.16918602340928157138, 0., 0.16918602340928157138, 0.3335048478244986103, 0.48822928568071350278, 0.62890813726522049777, 0.75149420255261301416, 0.85246057779664609309, 0.92890152815258624372, 0.97861176622208009515, 1. };
      sina::kernel::scalar_t gauss_lobatto_weights_19[] = { 0.0058479532163742690058, 0.035793365186176477115, 0.063381891762629736852, 0.089131757099207084448, 0.11231534147730504407, 0.13226728044875077693, 0.14841394259593888501, 0.16029092404406124198, 0.16755658452714286727, 0.17000191928482723464, 0.16755658452714286727, 0.16029092404406124198, 0.14841394259593888501, 0.13226728044875077693, 0.11231534147730504407, 0.089131757099207084448, 0.063381891762629736852, 0.035793365186176477115, 0.0058479532163742690058 };

      sina::kernel::scalar_t gauss_lobatto_points_20[] = { -1., -0.98074370489391417193, -0.93593449881266543572, -0.86687797808995014131, -0.77536826095205587041, -0.66377640229031128985, -0.53499286403188626165, -0.39235318371390929939, -0.23955170592298649518, -0.080545937238821837976, 0.080545937238821837976, 0.23955170592298649518, 0.39235318371390929939, 0.53499286403188626165, 0.66377640229031128985, 0.77536826095205587041, 0.86687797808995014131, 0.93593449881266543572, 0.98074370489391417193, 1. };
      sina::kernel::scalar_t gauss_lobatto_weights_20[] = { 0.0052631578947368421053, 0.032237123188488941492, 0.057181802127566826005, 0.080631763996119603145, 0.10199149969945081568, 0.1207092276286747251, 0.13630048235872418449, 0.14836155407091682581, 0.15658010264747548716, 0.16074328638784574901, 0.16074328638784574901, 0.15658010264747548716, 0.14836155407091682581, 0.13630048235872418449, 0.1207092276286747251, 0.10199149969945081568, 0.080631763996119603145, 0.057181802127566826005, 0.032237123188488941492, 0.0052631578947368421053 };

      sina::kernel::scalar_t gauss_lobatto_points_21[] = { -1., -0.98257229660454802823, -0.9419762969597455343, -0.87929475532359046445, -0.79600192607771240474, -0.69405102606222323263, -0.57583196026183068693, -0.44411578327900210119, -0.30198985650876488728, -0.15278551580218546601, 0., 0.15278551580218546601, 0.30198985650876488728, 0.44411578327900210119, 0.57583196026183068693, 0.69405102606222323263, 0.79600192607771240474, 0.87929475532359046445, 0.9419762969597455343, 0.98257229660454802823, 1. };
      sina::kernel::scalar_t gauss_lobatto_weights_21[] = { 0.0047619047619047619048, 0.029184840098505458609, 0.051843169000849625073, 0.073273918185074144253, 0.092985467957886065301, 0.11051708321912333527, 0.12545812119086894802, 0.13745846286004134358, 0.14623686244797745927, 0.15158757511168138445, 0.15338519033217494855, 0.15158757511168138445, 0.14623686244797745927, 0.13745846286004134358, 0.12545812119086894802, 0.11051708321912333527, 0.092985467957886065301, 0.073273918185074144253, 0.051843169000849625073, 0.029184840098505458609, 0.0047619047619047619048 };

      sina::kernel::scalar_t gauss_lobatto_points_22[] = { -1., -0.98415243845764617655, -0.94720428399922868052, -0.89006229019090447053, -0.81394892761192113605, -0.72048723996120215812, -0.61166943828425897123, -0.48981487518990234981, -0.35752071013891953806, -0.21760658515928504179, -0.073054540010898334761, 0.073054540010898334761, 0.21760658515928504179, 0.35752071013891953806, 0.48981487518990234981, 0.61166943828425897123, 0.72048723996120215812, 0.81394892761192113605, 0.89006229019090447053, 0.94720428399922868052, 0.98415243845764617655, 1. };
      sina::kernel::scalar_t gauss_lobatto_weights_22[] = { 0.0043290043290043290043, 0.026545747682501757912, 0.047214465293740752124, 0.066865605864553076012, 0.085090060391838447816, 0.10150057480164767437, 0.11574764465393906659, 0.12752769665343027553, 0.13658968861374142669, 0.14274049227136140034, 0.14584901944424179362, 0.14584901944424179362, 0.14274049227136140034, 0.13658968861374142669, 0.12752769665343027553, 0.11574764465393906659, 0.10150057480164767437, 0.085090060391838447816, 0.066865605864553076012, 0.047214465293740752124, 0.026545747682501757912, 0.0043290043290043290043 };

      sina::kernel::scalar_t gauss_lobatto_points_23[] = { -1., -0.98552715587873257808, -0.95175795571071020414, -0.89945855804034501095, -0.82965109665128588622, -0.74369504117206068395, -0.64326364446013620848, -0.53031177113684416813, -0.4070379379144748292, -0.27584154894579306711, -0.13927620404066839859, 0., 0.13927620404066839859, 0.27584154894579306711, 0.4070379379144748292, 0.53031177113684416813, 0.64326364446013620848, 0.74369504117206068395, 0.82965109665128588622, 0.89945855804034501095, 0.95175795571071020414, 0.98552715587873257808, 1. };
      sina::kernel::scalar_t gauss_lobatto_weights_23[] = { 0.0039525691699604743083, 0.024248600771531736517, 0.043175871170241834749, 0.061252477129554206381, 0.078135449475569989742, 0.093497246163512341834, 0.10703910172433651154, 0.1184975106627491313, 0.12764947470175887664, 0.1343168726386038199, 0.13836993638580739452, 0.13972978001274736514, 0.13836993638580739452, 0.1343168726386038199, 0.12764947470175887664, 0.1184975106627491313, 0.10703910172433651154, 0.093497246163512341834, 0.078135449475569989742, 0.061252477129554206381, 0.043175871170241834749, 0.024248600771531736517, 0.0039525691699604743083 };

      sina::kernel::scalar_t gauss_lobatto_points_24[] = { -1., -0.98673055350516088355, -0.95574822092988635803, -0.907705675113506522, -0.84346407015487204062, -0.76417048242049330779, -0.67124010526412869984, -0.56633135797929531219, -0.45131637321432261825, -0.32824761337551091203, -0.19932125339083266724, -0.066837993737228578114, 0.066837993737228578114, 0.19932125339083266724, 0.32824761337551091203, 0.45131637321432261825, 0.56633135797929531219, 0.67124010526412869984, 0.76417048242049330779, 0.84346407015487204062, 0.907705675113506522, 0.95574822092988635803, 0.98673055350516088355, 1. };
      sina::kernel::scalar_t gauss_lobatto_weights_24[] = { 0.0036231884057971014493, 0.022236853464711208993, 0.039631681333467809469, 0.056309848724646199021, 0.071981862055293982216, 0.086369029967929068217, 0.099214827684083587414, 0.11029008689296860411, 0.11939719370249131903, 0.12637364202802080013, 0.13109494187360394235, 0.1334768438669863776, 0.1334768438669863776, 0.13109494187360394235, 0.12637364202802080013, 0.11939719370249131903, 0.11029008689296860411, 0.099214827684083587414, 0.086369029967929068217, 0.071981862055293982216, 0.056309848724646199021, 0.039631681333467809469, 0.022236853464711208993, 0.0036231884057971014493 };

      sina::kernel::scalar_t gauss_lobatto_points_25[] = { -1., -0.98778994493149370927, -0.95926413825253447886, -0.91498277073462257832, -0.85567646583531657752, -0.7823196592407167804, -0.69611704881513436676, -0.5984841472799932681, -0.49102411481887838262, -0.37550145785922723323, -0.25381306416887658018, -0.12795705948310697271, 0., 0.12795705948310697271, 0.25381306416887658018, 0.37550145785922723323, 0.49102411481887838262, 0.5984841472799932681, 0.69611704881513436676, 0.7823196592407167804, 0.85567646583531657752, 0.91498277073462257832, 0.95926413825253447886, 0.98778994493149370927, 1. };
      sina::kernel::scalar_t gauss_lobatto_weights_25[] = { 0.0033333333333333333333, 0.020465168932974385309, 0.036504738794271372032, 0.051936228368491474643, 0.066513728675312784694, 0.079998774836292981802, 0.092170139910620421913, 0.10282803034795783083, 0.11179746626832088816, 0.11893117940681182541, 0.1241120389379502907, 0.12725497753833144702, 0.12830838929866192834, 0.12725497753833144702, 0.1241120389379502907, 0.11893117940681182541, 0.11179746626832088816, 0.10282803034795783083, 0.092170139910620421913, 0.079998774836292981802, 0.066513728675312784694, 0.051936228368491474643, 0.036504738794271372032, 0.020465168932974385309, 0.0033333333333333333333 };

      sina::kernel::scalar_t gauss_lobatto_points_26[] = { -1., -0.98872741231147565443, -0.96237787476771732975, -0.92143554681755734113, -0.86652432395912357097, -0.79847718310743743904, -0.71832581636266508053, -0.6272852994923168878, -0.5267357420298785453, -0.41820138706624678556, -0.30332751285925272077, -0.18385549527005490132, -0.061596411781919728205, 0.061596411781919728205, 0.18385549527005490132, 0.30332751285925272077, 0.41820138706624678556, 0.5267357420298785453, 0.6272852994923168878, 0.71832581636266508053, 0.79847718310743743904, 0.86652432395912357097, 0.92143554681755734113, 0.96237787476771732975, 0.98872741231147565443, 1. };
      sina::kernel::scalar_t gauss_lobatto_weights_26[] = { 0.0030769230769230769231, 0.018896858024263465581, 0.033732303685955999378, 0.048048399081180627316, 0.061635025142547402782, 0.074287050122291137316, 0.085812863980004362187, 0.096037802353901310804, 0.10480688623073705299, 0.1119871941198603353, 0.11746988409380900708, 0.12117184628844334604, 0.1230369638000828763, 0.1230369638000828763, 0.12117184628844334604, 0.11746988409380900708, 0.1119871941198603353, 0.10480688623073705299, 0.096037802353901310804, 0.085812863980004362187, 0.074287050122291137316, 0.061635025142547402782, 0.048048399081180627316, 0.033732303685955999378, 0.018896858024263465581, 0.0030769230769230769231 };

      sina::kernel::scalar_t gauss_lobatto_points_27[] = { -1., -0.98956096372855062115, -0.96514840245081891926, -0.92718345872511577886, -0.87620208621452247867, -0.81292048689581228826, -0.73822714984645991084, -0.65317066369680951518, -0.55894506094256118006, -0.45687307561408240368, -0.34838758198902867044, -0.23501148310291813334, -0.11833633389852104844, 0., 0.11833633389852104844, 0.23501148310291813334, 0.34838758198902867044, 0.45687307561408240368, 0.55894506094256118006, 0.65317066369680951518, 0.73822714984645991084, 0.81292048689581228826, 0.87620208621452247867, 0.92718345872511577886, 0.96514840245081891926, 0.98956096372855062115, 1. };
      sina::kernel::scalar_t gauss_lobatto_weights_27[] = { 0.0028490028490028490028, 0.017501974876065579019, 0.031262951735202384325, 0.044577657933061698744, 0.057265569680162731739, 0.069149342360043276281, 0.080062321970538458168, 0.089851365259290559972, 0.098379074585952763179, 0.10552574782125301122, 0.11119106525743703293, 0.11529550025465198281, 0.11778143658595615907, 0.11861397766276302709, 0.11778143658595615907, 0.11529550025465198281, 0.11119106525743703293, 0.10552574782125301122, 0.098379074585952763179, 0.089851365259290559972, 0.080062321970538458168, 0.069149342360043276281, 0.057265569680162731739, 0.044577657933061698744, 0.031262951735202384325, 0.017501974876065579019, 0.0028490028490028490028 };

      sina::kernel::scalar_t gauss_lobatto_points_28[] = { -1., -0.99030540261845412552, -0.96762428585713130434, -0.93232516712155852493, -0.88487101721130283841, -0.82588097005633819604, -0.75612419400556976515, -0.67651012892957331772, -0.58807668983717560648, -0.49197675393157938043, -0.38946313757636280794, -0.28187226662160237195, -0.17060675530800436088, -0.057117121693512897627, 0.057117121693512897627, 0.17060675530800436088, 0.28187226662160237195, 0.38946313757636280794, 0.49197675393157938043, 0.58807668983717560648, 0.67651012892957331772, 0.75612419400556976515, 0.82588097005633819604, 0.88487101721130283841, 0.93232516712155852493, 0.96762428585713130434, 0.99030540261845412552, 1. };
      sina::kernel::scalar_t gauss_lobatto_weights_28[] = { 0.0026455026455026455026, 0.016255883957504218199, 0.029054220677979144707, 0.041466915243006721038, 0.0533380770473274884, 0.06451365808035453839, 0.074848123509707702781, 0.084206795121510325739, 0.092467685997712175722, 0.099523110412495672876, 0.10528109376105589448, 0.10966657379597662509, 0.11262238007723901254, 0.11410997967262783453, 0.11410997967262783453, 0.11262238007723901254, 0.10966657379597662509, 0.10528109376105589448, 0.099523110412495672876, 0.092467685997712175722, 0.084206795121510325739, 0.074848123509707702781, 0.06451365808035453839, 0.0533380770473274884, 0.041466915243006721038, 0.029054220677979144707, 0.016255883957504218199, 0.0026455026455026455026 };

      sina::kernel::scalar_t gauss_lobatto_points_29[] = { -1., -0.99097298826856981628, -0.96984580728793629371, -0.93694271852098251154, -0.89266571997608827876, -0.83755273628178656524, -0.77227289720646874135, -0.69761866135636798839, -0.61449625220343294997, -0.52391467437196908358, -0.42697347171349438764, -0.32484938284191100626, -0.21878205828426101981, -0.11005901339559210971, 0., 0.11005901339559210971, 0.21878205828426101981, 0.32484938284191100626, 0.42697347171349438764, 0.52391467437196908358, 0.61449625220343294997, 0.69761866135636798839, 0.77227289720646874135, 0.83755273628178656524, 0.89266571997608827876, 0.93694271852098251154, 0.96984580728793629371, 0.99097298826856981628, 1. };
      sina::kernel::scalar_t gauss_lobatto_weights_29[] = { 0.0024630541871921182266, 0.015138169859967596791, 0.027070806296824827541, 0.038668439979712979748, 0.049795809093237560923, 0.060318503828522735028, 0.070108938000597999185, 0.079048313027885601784, 0.087028133441135605638, 0.093951542114796312498, 0.099734501637149860654, 0.10430681646367653742, 0.10761298583356853937, 0.10961287784589042013, 0.11028221677968261011, 0.10961287784589042013, 0.10761298583356853937, 0.10430681646367653742, 0.099734501637149860654, 0.093951542114796312498, 0.087028133441135605638, 0.079048313027885601784, 0.070108938000597999185, 0.060318503828522735028, 0.049795809093237560923, 0.038668439979712979748, 0.027070806296824827541, 0.015138169859967596791, 0.0024630541871921182266 };

      sina::kernel::scalar_t gauss_lobatto_points_30[] = { -1., -0.99157394284050029334, -0.97184660316626924168, -0.94110478095105708231, -0.89969921819927685955, -0.84809948718019810955, -0.78689035723754708045, -0.71676539863708513163, -0.63851917580755840737, -0.55303826009505285238, -0.46129119016824068523, -0.36431750042244899776, -0.26321594371957379127, -0.15913204262585046782, -0.053245110485486669363, 0.053245110485486669363, 0.15913204262585046782, 0.26321594371957379127, 0.36431750042244899776, 0.46129119016824068523, 0.55303826009505285238, 0.63851917580755840737, 0.71676539863708513163, 0.78689035723754708045, 0.84809948718019810955, 0.89969921819927685955, 0.94110478095105708231, 0.97184660316626924168, 0.99157394284050029334, 1. };
      sina::kernel::scalar_t gauss_lobatto_weights_30[] = { 0.0022988505747126436782, 0.014131799327905387641, 0.025283166740551402204, 0.036142094199408535315, 0.046590694533142927402, 0.056511197923080383302, 0.065791336397790054944, 0.074326003324718253834, 0.0820185128334069148, 0.088781712319765210167, 0.094538975193860891781, 0.099225071004299830658, 0.10278690530723498947, 0.10518412159645464986, 0.10638955872366792495, 0.10638955872366792495, 0.10518412159645464986, 0.10278690530723498947, 0.099225071004299830658, 0.094538975193860891781, 0.088781712319765210167, 0.0820185128334069148, 0.074326003324718253834, 0.065791336397790054944, 0.056511197923080383302, 0.046590694533142927402, 0.036142094199408535315, 0.025283166740551402204, 0.014131799327905387641, 0.0022988505747126436782 };

      sina::kernel::scalar_t gauss_lobatto_points_31[] = { -1., -0.99211684434648108859, -0.97365493581573647483, -0.94486917020803922981, -0.90606695144126981314, -0.85765999529745561037, -0.80016154319246298927, -0.73418113630907524213, -0.66041820261152552334, -0.579654657208001913, -0.4927466190988324057, -0.4006153382805618063, -0.30423743127287262096, -0.20463452924752450114, -0.10286244876068227709, 0., 0.10286244876068227709, 0.20463452924752450114, 0.30423743127287262096, 0.4006153382805618063, 0.4927466190988324057, 0.579654657208001913, 0.66041820261152552334, 0.73418113630907524213, 0.80016154319246298927, 0.85765999529745561037, 0.90606695144126981314, 0.94486917020803922981, 0.97365493581573647483, 0.99211684434648108859, 1. };
      sina::kernel::scalar_t gauss_lobatto_weights_31[] = { 0.0021505376344086021505, 0.013222471025464670303, 0.02366643323027031673, 0.03385394040522405763, 0.04368181816006691283, 0.053046465493448782774, 0.061848741290454623391, 0.06999537759410057045, 0.077400032341475618634, 0.083984220517529730665, 0.089678151045260822248, 0.094421468377857957432, 0.09816389301371275712, 0.1008657547986505134, 0.10249841359547039768, 0.10304456295320733314, 0.10249841359547039768, 0.1008657547986505134, 0.09816389301371275712, 0.094421468377857957432, 0.089678151045260822248, 0.083984220517529730665, 0.077400032341475618634, 0.06999537759410057045, 0.061848741290454623391, 0.053046465493448782774, 0.04368181816006691283, 0.03385394040522405763, 0.02366643323027031673, 0.013222471025464670303, 0.0021505376344086021505 };

      sina::kernel::scalar_t gauss_lobatto_points_32[] = { -1., -0.99260893397276135937, -0.97529469048270922806, -0.94828483841723237808, -0.91184993906373190407, -0.86635247601267551983, -0.81224473177744234455, -0.75006449393667479772, -0.68042975561555081594, -0.60403258714842112614, -0.52163226288156529061, -0.4340477172018469396, -0.34214940653888148625, -0.24685065885020530442, -0.14909859681364749491, -0.049864725046593252306, 0.049864725046593252306, 0.14909859681364749491, 0.24685065885020530442, 0.34214940653888148625, 0.4340477172018469396, 0.52163226288156529061, 0.60403258714842112614, 0.68042975561555081594, 0.75006449393667479772, 0.81224473177744234455, 0.86635247601267551983, 0.91184993906373190407, 0.94828483841723237808, 0.97529469048270922806, 0.99260893397276135937, 1. };
      sina::kernel::scalar_t gauss_lobatto_weights_32[] = { 0.0020161290322580645161, 0.012398106501373843789, 0.022199552889291964624, 0.031775135410915465782, 0.04103420158606272333, 0.049885271336221207012, 0.058240497248055869551, 0.066016877257154543932, 0.07313713960267903264, 0.079530525692106252292, 0.085133497949668230528, 0.089890372957357833072, 0.093753875546813813566, 0.09668560894800260056, 0.098656436540761777171, 0.099646771501276777635, 0.099646771501276777635, 0.098656436540761777171, 0.09668560894800260056, 0.093753875546813813566, 0.089890372957357833072, 0.085133497949668230528, 0.079530525692106252292, 0.07313713960267903264, 0.066016877257154543932, 0.058240497248055869551, 0.049885271336221207012, 0.04103420158606272333, 0.031775135410915465782, 0.022199552889291964624, 0.012398106501373843789, 0.0020161290322580645161 };

      sina::kernel::scalar_t gauss_lobatto_points_33[] = { -1., -0.99305635843365834367, -0.97678616331690630149, -0.95139345139699574338, -0.91711730345094124083, -0.87427810075056222065, -0.82327592300406746956, -0.76458700179352862801, -0.6987593166181625957, -0.62640749128126825726, -0.54820705991911162311, -0.46488816163210675597, -0.37722872425339363504, -0.28604720148767404161, -0.19219493146747722574, -0.096548188176107006317, 0., 0.096548188176107006317, 0.19219493146747722574, 0.28604720148767404161, 0.37722872425339363504, 0.46488816163210675597, 0.54820705991911162311, 0.62640749128126825726, 0.6987593166181625957, 0.76458700179352862801, 0.82327592300406746956, 0.87427810075056222065, 0.91711730345094124083, 0.95139345139699574338, 0.97678616331690630149, 0.99305635843365834367, 1. };
      sina::kernel::scalar_t gauss_lobatto_weights_33[] = { 0.0018939393939393939394, 0.011648448392267734651, 0.020864609017603360096, 0.02988104591674647752, 0.038617814771813967564, 0.046993850461024170548, 0.054931059442626967952, 0.062355367852465305441, 0.06919746949401614756, 0.075393486923973828507, 0.08088557219345509218, 0.08562244853181313255, 0.089559889747077400661, 0.09266113344224146353, 0.094897224394591815824, 0.096247284972985461997, 0.09669871010271655896, 0.096247284972985461997, 0.094897224394591815824, 0.09266113344224146353, 0.089559889747077400661, 0.08562244853181313255, 0.08088557219345509218, 0.075393486923973828507, 0.06919746949401614756, 0.062355367852465305441, 0.054931059442626967952, 0.046993850461024170548, 0.038617814771813967564, 0.02988104591674647752, 0.020864609017603360096, 0.011648448392267734651, 0.0018939393939393939394 };

      sina::kernel::scalar_t gauss_lobatto_points_34[] = { -1., -0.99346436258751620225, -0.97814668887993794895, -0.95423064891280752841, -0.92192829567744892274, -0.8815238365122732644, -0.83337244280314261491, -0.77789730643186741088, -0.715585960720219006, -0.64698600793601462438, -0.57270031127492284479, -0.49338169867327095744, -0.40972722655959274486, -0.32247205451148899358, -0.23238298486911684306, -0.14025172417619385837, -0.046887925712970680087, 0.046887925712970680087, 0.14025172417619385837, 0.23238298486911684306, 0.32247205451148899358, 0.40972722655959274486, 0.49338169867327095744, 0.57270031127492284479, 0.64698600793601462438, 0.715585960720219006, 0.77789730643186741088, 0.83337244280314261491, 0.8815238365122732644, 0.92192829567744892274, 0.95423064891280752841, 0.97814668887993794895, 0.99346436258751620225, 1. };
